/* Generated by Edge Impulse
*
* Permission is hereby granted, free of charge, to any person obtaining a copy
* of this software and associated documentation files (the "Software"), to deal
* in the Software without restriction, including without limitation the rights
* to use, copy, modify, merge, publish, distribute, sublicense, and/or sell
* copies of the Software, and to permit persons to whom the Software is
* furnished to do so, subject to the following conditions:
*
* The above copyright notice and this permission notice shall be included in
* all copies or substantial portions of the Software.
*
* THE SOFTWARE IS PROVIDED "AS IS", WITHOUT WARRANTY OF ANY KIND, EXPRESS OR
* IMPLIED, INCLUDING BUT NOT LIMITED TO THE WARRANTIES OF MERCHANTABILITY,
* FITNESS FOR A PARTICULAR PURPOSE AND NONINFRINGEMENT. IN NO EVENT SHALL THE
* AUTHORS OR COPYRIGHT HOLDERS BE LIABLE FOR ANY CLAIM, DAMAGES OR OTHER
* LIABILITY, WHETHER IN AN ACTION OF CONTRACT, TORT OR OTHERWISE, ARISING FROM,
* OUT OF OR IN CONNECTION WITH THE SOFTWARE OR THE USE OR OTHER DEALINGS IN THE
* SOFTWARE.
*/
// Generated on: 22.12.2021 12:24:05

#include <stdio.h>
#include <stdlib.h>
#include <vector>
#include "edge-impulse-sdk/tensorflow/lite/c/builtin_op_data.h"
#include "edge-impulse-sdk/tensorflow/lite/c/common.h"
#include "edge-impulse-sdk/tensorflow/lite/micro/micro_mutable_op_resolver.h"
#include "edge-impulse-sdk/porting/ei_classifier_porting.h"

#if EI_CLASSIFIER_PRINT_STATE
#if defined(__cplusplus) && EI_C_LINKAGE == 1
extern "C" {
    extern void ei_printf(const char *format, ...);
}
#else
extern void ei_printf(const char *format, ...);
#endif
#endif

#if defined __GNUC__
#define ALIGN(X) __attribute__((aligned(X)))
#elif defined _MSC_VER
#define ALIGN(X) __declspec(align(X))
#elif defined __TASKING__
#define ALIGN(X) __align(X)
#endif

using namespace tflite;
using namespace tflite::ops;
using namespace tflite::ops::micro;

namespace {

constexpr int kTensorArenaSize = 7504;

#if defined(EI_CLASSIFIER_ALLOCATION_STATIC)
uint8_t tensor_arena[kTensorArenaSize] ALIGN(16);
#elif defined(EI_CLASSIFIER_ALLOCATION_STATIC_HIMAX)
#pragma Bss(".tensor_arena")
uint8_t tensor_arena[kTensorArenaSize] ALIGN(16);
#pragma Bss()
#elif defined(EI_CLASSIFIER_ALLOCATION_STATIC_HIMAX_GNU)
uint8_t tensor_arena[kTensorArenaSize] ALIGN(16) __attribute__((section(".tensor_arena")));
#else
#define EI_CLASSIFIER_ALLOCATION_HEAP 1
uint8_t* tensor_arena = NULL;
#endif

static uint8_t* tensor_boundary;
static uint8_t* current_location;

template <int SZ, class T> struct TfArray {
  int sz; T elem[SZ];
};
enum used_operators_e {
  OP_RESHAPE, OP_CONV_2D, OP_MAX_POOL_2D, OP_FULLY_CONNECTED, OP_SOFTMAX,  OP_LAST
};
struct TensorInfo_t { // subset of TfLiteTensor used for initialization from constant memory
  TfLiteAllocationType allocation_type;
  TfLiteType type;
  void* data;
  TfLiteIntArray* dims;
  size_t bytes;
  TfLiteQuantization quantization;
};
struct NodeInfo_t { // subset of TfLiteNode used for initialization from constant memory
  struct TfLiteIntArray* inputs;
  struct TfLiteIntArray* outputs;
  void* builtin_data;
  used_operators_e used_op_index;
};

TfLiteContext ctx{};
TfLiteTensor tflTensors[39];
TfLiteEvalTensor tflEvalTensors[39];
TfLiteRegistration registrations[OP_LAST];
TfLiteNode tflNodes[19];

const TfArray<2, int> tensor_dimension0 = { 2, { 1,1600 } };
const TfArray<1, float> quant0_scale = { 1, { 0.0034773284569382668, } };
const TfArray<1, int> quant0_zero = { 1, { -128 } };
const TfLiteAffineQuantization quant0 = { (TfLiteFloatArray*)&quant0_scale, (TfLiteIntArray*)&quant0_zero, 0 };
const ALIGN(8) int32_t tensor_data1[2] = { -1, 384, };
const TfArray<1, int> tensor_dimension1 = { 1, { 2 } };
const ALIGN(16) int32_t tensor_data2[16] = { 5766, -2947, -576, 12945, -5441, 5197, -7255, 2648, -1733, -7245, -379, -1116, -488, -7778, -6273, 5454, };
const TfArray<1, int> tensor_dimension2 = { 1, { 16 } };
const TfArray<16, float> quant2_scale = { 16, { 9.6357462098239921e-06, 8.8747792688081972e-06, 7.4243189374101348e-06, 9.4835131676518358e-06, 9.3673434093943797e-06, 1.1162699593114667e-05, 1.2348152267804835e-05, 8.2309743447694927e-06, 1.0028280485130381e-05, 8.8307424448430538e-06, 5.8431792240298819e-06, 5.8962846196664032e-06, 9.9475610113586299e-06, 8.523321412212681e-06, 6.0359293456713203e-06, 8.4050034274696372e-06, } };
const TfArray<16, int> quant2_zero = { 16, { 0,0,0,0,0,0,0,0,0,0,0,0,0,0,0,0 } };
const TfLiteAffineQuantization quant2 = { (TfLiteFloatArray*)&quant2_scale, (TfLiteIntArray*)&quant2_zero, 0 };
const ALIGN(16) int32_t tensor_data3[32] = { -1339, -1191, -1394, -954, -668, -852, -238, -1946, 683, -731, 147, 829, -304, 1545, -458, -800, -958, 701, -1019, 849, -168, -1746, 1114, -855, 2492, -668, 1912, -528, -707, -847, -128, -1389, };
const TfArray<1, int> tensor_dimension3 = { 1, { 32 } };
const TfArray<32, float> quant3_scale = { 32, { 3.9423477574018762e-05, 5.7040095271077007e-05, 3.6211022234056145e-05, 3.7367688491940498e-05, 3.6463206924963742e-05, 3.0024237275938503e-05, 5.1677470764843747e-05, 4.9874004616867751e-05, 5.5380904086632654e-05, 5.4671359976055101e-05, 4.0460210584569722e-05, 6.1894977989140898e-05, 4.9696096539264545e-05, 4.5389744627755135e-05, 5.8792949857888743e-05, 5.4896339861443266e-05, 5.8876463299384341e-05, 4.9835703975986689e-05, 4.511218867264688e-05, 6.0328704421408474e-05, 6.5365711634512991e-05, 6.053316974430345e-05, 5.4660395107930526e-05, 3.5085824492853135e-05, 4.5613298425450921e-05, 5.5799657275201753e-05, 4.6031749661779031e-05, 5.2675168262794614e-05, 6.0387828852981329e-05, 3.2763648050604388e-05, 5.575786781264469e-05, 4.7996767534641549e-05, } };
const TfArray<32, int> quant3_zero = { 32, { 0,0,0,0,0,0,0,0,0,0,0,0,0,0,0,0,0,0,0,0,0,0,0,0,0,0,0,0,0,0,0,0 } };
const TfLiteAffineQuantization quant3 = { (TfLiteFloatArray*)&quant3_scale, (TfLiteIntArray*)&quant3_zero, 0 };
const ALIGN(16) int32_t tensor_data4[64] = { -1286, -1946, -245, -629, -1608, 439, -644, -567, -1693, -2718, -1626, 1094, 1983, -1721, -2322, 135, 863, -1067, -2438, -1062, 1624, 175, -2285, -3343, -1505, -487, -3478, -205, 2801, -1412, 1587, 1602, 1150, -973, -2191, -1721, -700, -1514, 1166, 38, -1135, 3801, 357, -1430, -2890, 2117, -2286, -89, 609, -54, -1591, -275, -1845, 1478, 1264, -2130, 11, -1887, -2192, -1187, 2149, -1636, -200, -1823, };
const TfArray<1, int> tensor_dimension4 = { 1, { 64 } };
const TfArray<64, float> quant4_scale = { 64, { 2.3028625946608372e-05, 2.1868849216843955e-05, 4.4176897063152865e-05, 3.6228484532330185e-05, 1.8661414287635125e-05, 3.9837486838223413e-05, 4.886320311925374e-05, 2.9538154194597155e-05, 1.8700729924603365e-05, 3.5013174056075513e-05, 5.5248721764655784e-05, 3.7512880226131529e-05, 2.9545826691901311e-05, 2.0034945919178426e-05, 1.7497730368631892e-05, 3.5681045119417831e-05, 3.5099761589663103e-05, 4.9636255425866693e-05, 3.0492145015159622e-05, 2.2215997887542471e-05, 3.6390505556482822e-05, 3.2945346902124584e-05, 2.03982835955685e-05, 3.5550099710235372e-05, 1.8209868358098902e-05, 5.0564834964461625e-05, 2.1827831005793996e-05, 3.3006337616825476e-05, 4.4620242988457903e-05, 1.9536033505573869e-05, 3.7166762922424823e-05, 3.7869005609536543e-05, 3.1150266295298934e-05, 3.6743498640134931e-05, 2.926670822489541e-05, 1.9008444724022411e-05, 3.4490407415432855e-05, 3.8059344660723582e-05, 3.2771647966001183e-05, 3.3286152756772935e-05, 4.7783069021534175e-05, 2.6169127522734925e-05, 4.5043259888188913e-05, 1.7902413674164563e-05, 1.9695031369337812e-05, 4.0918552258517593e-05, 1.9704913938767277e-05, 4.3391573854023591e-05, 2.9571148843388073e-05, 2.0076242435607128e-05, 1.8867302060243674e-05, 3.5966433642897755e-05, 3.4579647035570815e-05, 5.1818329666275531e-05, 5.4786771215731278e-05, 2.010082607739605e-05, 3.3463038562331349e-05, 1.9811821402981877e-05, 2.831825622706674e-05, 2.6779845939017832e-05, 2.6608771804603748e-05, 2.9735081625403836e-05, 4.3616244511213154e-05, 1.9845478163915686e-05, } };
const TfArray<64, int> quant4_zero = { 64, { 0,0,0,0,0,0,0,0,0,0,0,0,0,0,0,0,0,0,0,0,0,0,0,0,0,0,0,0,0,0,0,0,0,0,0,0,0,0,0,0,0,0,0,0,0,0,0,0,0,0,0,0,0,0,0,0,0,0,0,0,0,0,0,0 } };
const TfLiteAffineQuantization quant4 = { (TfLiteFloatArray*)&quant4_scale, (TfLiteIntArray*)&quant4_zero, 0 };
const ALIGN(16) int32_t tensor_data5[128] = { -2147, 2824, -2020, -933, -1882, -2143, 3353, 484, 1298, -1654, -3166, -2980, -2076, -1774, -2112, -1422, -300, -775, 700, -2769, -1383, 993, -686, 370, -814, -1091, -1152, 1599, -818, 243, -760, 4847, 3043, 2452, -1320, -2053, 4434, -1390, -66, -3431, -1498, 1748, 576, 3153, -1849, 1850, -1579, -150, -384, 1599, -129, -408, 1857, 1074, -2018, -1745, 88, -81, -1765, 1900, 439, 1943, -802, -1752, 772, -1640, -698, -1716, -1962, -1054, -1013, 1955, -206, -1330, -918, 1336, -570, 186, 134, 2265, -2221, -2216, -563, 425, -200, 91, -1202, 3212, 1404, 1971, 3445, -3874, -4266, -1646, -333, -1808, -1723, 1298, 371, 425, 398, -708, -1244, 1033, -1348, 1380, 1503, 780, -1659, -2227, -1347, -481, -1953, -1736, -932, -1026, 714, 1989, -2420, 2226, -865, -470, -2038, 166, -188, -1659, 213, 979, };
const TfArray<1, int> tensor_dimension5 = { 1, { 128 } };
const TfArray<128, float> quant5_scale = { 128, { 1.944606083270628e-05, 4.8421828978462145e-05, 1.8582248230814002e-05, 4.7595163778169081e-05, 1.9514287487254478e-05, 1.8859976989915594e-05, 3.5945591662311926e-05, 4.1600687836762518e-05, 3.9925598684931174e-05, 1.8156717487727292e-05, 2.1802965420647524e-05, 2.4963510441011749e-05, 1.8187154637416825e-05, 4.558804357657209e-05, 1.9960150893894024e-05, 2.2292515495792031e-05, 4.8941939894575626e-05, 4.2069961637025699e-05, 3.6341381928650662e-05, 2.11995738936821e-05, 4.4010343117406592e-05, 3.1127990951063111e-05, 3.5647790355142206e-05, 4.30555701314006e-05, 4.0429022192256525e-05, 3.5498462239047512e-05, 5.0046201067743823e-05, 3.8025282265152782e-05, 2.6631108994479291e-05, 2.5570108846295625e-05, 4.0208975406130776e-05, 3.3773609175113961e-05, 3.5890010622097179e-05, 5.1751241699093953e-05, 2.6067960789077915e-05, 3.0101387892500497e-05, 4.0599392377771437e-05, 5.0112030294258147e-05, 4.889233605354093e-05, 2.3685419364483096e-05, 2.0397519620019011e-05, 3.9153448597062379e-05, 3.6768378777196631e-05, 3.7336274544941261e-05, 1.9297367543913424e-05, 4.1129867895506322e-05, 1.8097283827955835e-05, 2.1702366211684421e-05, 2.932059760496486e-05, 4.4748154323315248e-05, 4.1747927753021941e-05, 2.4268836568808183e-05, 2.9775990697089583e-05, 4.9669670261209831e-05, 1.9697612515301444e-05, 3.3897471439559013e-05, 1.943338975252118e-05, 3.4565629903227091e-05, 1.9963399608968757e-05, 3.6786663258681074e-05, 6.2722887378185987e-05, 5.4671847465215251e-05, 2.651241265994031e-05, 1.8760645616566762e-05, 2.9211803848738782e-05, 3.8091311580501497e-05, 4.1138639062410221e-05, 1.7492642655270174e-05, 1.9650811736937612e-05, 3.8145677535794675e-05, 4.0811944927554578e-05, 3.8129561289679259e-05, 1.9091849026153795e-05, 4.538048233371228e-05, 1.8683558664633892e-05, 4.9585756642045453e-05, 3.0837440135655925e-05, 4.5292861614143476e-05, 4.1244114981964231e-05, 4.5120774302631617e-05, 1.9734929082915187e-05, 1.9099625205853954e-05, 3.2999210816342384e-05, 2.9154803996789269e-05, 2.8567834306159057e-05, 5.2954575949115679e-05, 3.8094956835266203e-05, 2.8215159545652568e-05, 3.8936272176215425e-05, 5.5344149586744606e-05, 2.9824381272192113e-05, 2.8971566280233674e-05, 3.4072396374540403e-05, 1.823872844397556e-05, 3.9768270653439686e-05, 1.8142180124414153e-05, 1.8033120795735158e-05, 3.3820637327153236e-05, 5.521995626622811e-05, 3.8018966733943671e-05, 3.801596540142782e-05, 3.9455560909118503e-05, 4.5520955609390512e-05, 2.896862497436814e-05, 1.9985549442935735e-05, 4.0829370846040547e-05, 4.1920146031770855e-05, 4.8736466851551086e-05, 1.8421904314891435e-05, 1.9412247638683766e-05, 3.9931772334966809e-05, 3.5769266105489805e-05, 2.0247302018105984e-05, 1.7300260878982954e-05, 3.5650908102979884e-05, 4.5772634621243924e-05, 4.9479749577585608e-05, 4.1974297346314415e-05, 3.1745574233355001e-05, 2.9868340789107606e-05, 4.1903382225427777e-05, 5.2668921853182837e-05, 2.0878591385553591e-05, 3.0925715691410005e-05, 5.199931183597073e-05, 1.809479363146238e-05, 4.3315685616107658e-05, 4.942550731357187e-05, } };
const TfArray<128, int> quant5_zero = { 128, { 0,0,0,0,0,0,0,0,0,0,0,0,0,0,0,0,0,0,0,0,0,0,0,0,0,0,0,0,0,0,0,0,0,0,0,0,0,0,0,0,0,0,0,0,0,0,0,0,0,0,0,0,0,0,0,0,0,0,0,0,0,0,0,0,0,0,0,0,0,0,0,0,0,0,0,0,0,0,0,0,0,0,0,0,0,0,0,0,0,0,0,0,0,0,0,0,0,0,0,0,0,0,0,0,0,0,0,0,0,0,0,0,0,0,0,0,0,0,0,0,0,0,0,0,0,0,0,0 } };
const TfLiteAffineQuantization quant5 = { (TfLiteFloatArray*)&quant5_scale, (TfLiteIntArray*)&quant5_zero, 0 };
const ALIGN(8) int32_t tensor_data6[3] = { -751, 846, -192, };
const TfArray<1, int> tensor_dimension6 = { 1, { 3 } };
const TfArray<1, float> quant6_scale = { 1, { 0.00011866540444316342, } };
const TfArray<1, int> quant6_zero = { 1, { 0 } };
const TfLiteAffineQuantization quant6 = { (TfLiteFloatArray*)&quant6_scale, (TfLiteIntArray*)&quant6_zero, 0 };
const ALIGN(16) int8_t tensor_data7[3*384] = { 
  -19, -25, -18, 14, -2, -14, -28, -12, 19, -17, -10, -17, -22, 34, -16, 7, -58, 22, -20, 17, 14, -35, 3, -1, 46, 8, 55, -50, 6, 4, 60, -36, -12, -2, -30, -16, -51, -6, -22, 18, -16, -45, -42, 9, -6, 9, -30, -10, -7, 15, -9, -15, 2, -4, -2, -16, -12, -17, 2, 6, -34, -34, -7, -35, 40, 10, -29, -10, -25, 0, 21, -22, -21, 25, 24, 12, -7, 0, -37, -49, -25, 22, 7, -19, 15, 16, 48, -8, -17, -44, -20, -6, 21, -1, 13, 9, -4, -27, -4, 2, 26, 21, 73, 15, -17, -35, 3, -23, 36, 19, 36, 14, 28, -13, 6, 12, -30, 13, 24, -6, 3, 7, -20, 21, 18, -1, -37, -14, -7, -16, 17, 27, 19, -35, -50, -36, 32, -23, 6, 37, -5, -7, -15, 2, 12, -18, -27, 1, 0, 7, 47, 4, 6, 21, -37, 15, 24, -36, -36, -8, -40, -3, 0, 35, -55, 23, 9, 23, -6, 20, -3, -45, -29, -4, 12, -8, 24, 32, 4, -14, -36, -22, 1, 41, -21, -7, -5, 21, -14, 1, -21, -14, -23, 14, 9, 7, 1, -40, -43, -3, 12, -9, 7, -15, -7, 2, 18, 24, -26, -4, 9, 0, 5, -21, 0, -9, 8, -67, 8, 20, -10, 15, -3, 5, 8, 11, 2, 45, -61, 32, 35, -46, -30, 4, -27, 2, -8, 4, -31, 67, -14, -17, 37, 31, -30, 5, 39, 1, 34, -11, -24, 11, -49, 7, 15, -25, -3, -63, 1, 5, 5, 19, -45, 21, -46, -30, -9, -25, -2, -46, -7, -9, -23, 10, -6, 5, -30, -15, 14, -24, -38, 4, 5, -9, 7, 27, -1, -53, -30, -26, -31, -4, 20, -37, -40, -13, -25, -37, -17, -50, -18, -64, -24, 1, -6, -47, -45, -5, -7, -13, -14, 1, 14, -12, 14, -40, 41, -39, 13, -16, -32, -15, 5, 1, -15, 19, -2, -52, 6, -20, 1, 2, -9, -41, -64, -15, -13, -37, -37, -17, 21, -57, -28, -67, -51, -74, -57, -29, -13, 16, -91, -24, 10, -58, -52, -3, 7, -15, -28, -9, -27, -36, -55, -67, 13, -39, 5, 15, 20, 17, -8, -41, 3, -79, -6, -55, -14, -1, 4, -45, -15, 11, -48, -76, 
  -16, 3, 12, 26, 11, 12, -15, -14, 16, -16, 18, 3, 0, -23, 15, 12, 9, 32, 21, 9, 35, 3, 19, 32, -22, 12, -32, 43, 1, 27, -28, 32, -21, 42, -4, -5, 25, -20, -15, 32, 2, 19, 27, 1, -11, 18, -24, 8, -1, 8, -13, 8, -7, 44, 14, -22, -30, 37, 3, -15, -37, 61, 19, -20, 20, -27, 8, -22, -21, -34, -23, 27, 10, -54, 15, 7, 48, 0, -30, 26, 4, -25, -18, 25, 15, -28, -17, -10, 6, 44, 38, -46, -9, -14, -52, 0, -4, -5, 0, -19, 6, -13, 0, 10, -18, 38, -18, -1, 20, 20, -26, -26, -2, -20, 5, -17, -11, 5, 14, -15, -30, -27, -9, -23, -39, 22, -5, 48, -2, 51, -9, -44, 18, -12, 49, 66, 36, -8, -11, -10, 34, -2, -7, 1, -34, 13, 8, 11, -5, -30, -18, 13, 34, -25, 32, 43, -12, -18, 17, 74, 56, 58, 10, 8, 8, -61, -5, -27, -2, 23, -44, 67, 14, 2, -12, 20, -4, -46, -11, 15, 42, 12, 7, -6, -25, -41, 16, 49, 37, -4, -31, -14, -23, -44, -7, -13, -11, 31, 61, -16, 10, 19, 21, 57, -28, -29, -31, 21, -9, -16, -21, 21, -16, -23, 30, 24, -7, -25, 2, -15, -1, 15, -21, 20, -13, 14, 29, -8, 40, -20, 13, 18, 19, -3, 58, -22, 9, -3, 4, -57, 22, -1, -8, -39, 65, -16, -7, 56, 5, 21, -13, -6, 64, -20, -13, -13, 12, 21, -5, 1, -20, 27, 95, 6, 32, -6, 10, 6, -6, 45, 6, -7, 38, -11, -2, -5, 17, -1, 2, -17, -1, -9, -21, 25, -10, -29, 29, 72, 55, 13, -16, -34, 11, 33, 87, 22, 30, 26, 45, 11, -24, 47, -22, -10, 9, 9, 68, -17, 21, 39, -7, 10, -17, 34, -21, 68, -8, 37, 21, 0, 48, 43, 2, 25, -17, 20, -1, 64, -32, 41, 7, -3, 31, 48, 75, 61, 3, -10, 50, -13, -20, 73, 0, 71, 16, 98, 45, 49, 40, 31, 59, -18, 21, 55, 27, -19, 34, 62, -13, 41, -2, 66, 63, 70, 1, 18, 11, 0, -15, 20, -26, 49, 23, 87, 17, 69, 60, -16, -11, 45, 63, -8, 66, 81, 
  18, 0, 28, -9, 2, 19, -17, 23, 34, -5, -23, 19, 10, -20, -19, 6, 16, 3, -30, -29, -6, 28, -39, -25, -39, 7, -29, -25, -8, 15, -8, 3, -12, -54, 19, 2, -40, -15, 10, -31, -7, 23, -21, -11, 14, -6, -25, 15, -2, -34, 41, 23, 7, -14, -8, -40, -1, -11, -4, 16, 11, -55, -21, 30, -29, -10, 38, 16, -23, 46, 36, 2, -18, 18, -18, -57, 13, 1, 15, 39, 0, -6, 21, 6, -20, 7, -31, 8, -19, -61, 2, 18, -23, -22, 65, 20, 3, -2, -8, -16, -2, 37, -21, -4, 1, 11, 0, 21, -17, -2, -13, -53, 33, -8, -27, 13, 36, 15, -12, -18, 6, 47, 6, -6, 5, -15, 25, 7, -35, -60, 17, -33, 19, 14, -3, -70, -57, 19, -14, -27, 19, 27, 17, -19, -1, -4, -32, 8, 11, 5, -28, -12, -32, -30, -38, 8, -32, -16, -41, -6, 6, -68, -17, 9, 16, 31, -7, 2, -14, 27, 36, -29, 7, 31, 16, -24, -23, -39, -11, 36, -11, -8, 19, 2, -13, 26, 8, -40, -45, -25, 10, 0, -22, 42, 13, -20, -16, -41, -92, -16, -24, 0, 18, -5, 18, 22, 25, 17, 16, -30, -6, -23, -27, 27, -13, 11, -24, 44, -7, -17, 4, 6, -15, -24, 10, -21, -6, 15, -37, 0, -41, -29, -4, 5, -71, -8, -6, 7, 36, -33, 28, 12, -10, 13, -33, -33, -39, -28, 4, -27, 4, -29, 1, -33, 40, 8, 10, 7, 11, 23, -34, -12, -102, 32, -37, 13, 18, 13, -34, -33, -1, 1, -21, -29, -32, 12, 9, 15, 17, -14, -15, 7, 0, -17, -23, -9, 33, -42, -83, -21, 19, 15, -66, 9, -76, -30, -20, -33, 4, -16, -3, 23, -17, 7, 10, 44, -52, 23, -47, 2, -15, 9, -1, -29, 16, -20, -18, -41, -7, 20, 7, -37, 21, -19, -15, 36, -6, -21, -11, -63, -36, 20, -25, -40, -10, -27, -11, 8, -23, 22, 24, -72, 15, -17, -15, -127, -49, -40, 8, 26, -81, -16, 0, -30, -56, -7, 13, -64, -4, -24, 9, -35, -57, -49, -8, 5, -3, 1, 1, -3, 20, -39, 9, -11, -13, -66, -38, 9, -19, -24, -54, -10, -40, -63, 
};
const TfArray<2, int> tensor_dimension7 = { 2, { 3,384 } };
const TfArray<1, float> quant7_scale = { 1, { 0.0041695199906826019, } };
const TfArray<1, int> quant7_zero = { 1, { 0 } };
const TfLiteAffineQuantization quant7 = { (TfLiteFloatArray*)&quant7_scale, (TfLiteIntArray*)&quant7_zero, 0 };
const ALIGN(16) int8_t tensor_data8[16*1*3*40] = { 
  /* [0][0][][] */ -58,-127,-31,-12,6,-90,-69,-88,-100,-68,-96,-45,51,-107,-4,-80,-56,51,-91,-42,36,37,-21,11,-6,39,-64,-43,-25,14,-37,46,-9,-57,36,-24,69,-32,-24,-30, 42,-29,33,39,-33,-76,-53,-54,-112,-75,6,2,23,-32,0,-52,38,-14,75,58,-24,76,14,-97,-89,-70,-53,-75,-39,-13,10,-47,-2,40,35,23,-21,-36,-22,-26, 41,3,60,-32,-8,21,17,-41,12,4,2,65,25,-5,62,87,89,69,105,108,70,54,3,50,-42,0,23,42,26,-27,-2,36,-12,65,52,32,77,30,26,26, 
  /* [1][0][][] */ -19,12,62,22,3,63,100,18,21,23,-61,1,48,16,-54,-15,3,-53,6,-26,-24,4,-63,47,56,-29,-76,-9,12,-23,19,42,56,-32,-53,-44,55,-9,-52,79, -78,48,70,1,58,18,127,18,58,-18,-15,-39,-10,-10,-3,-72,70,-10,31,25,-16,-6,47,-52,-36,-113,-25,-9,84,72,-55,-11,81,46,2,70,80,33,83,14, -16,85,70,93,55,68,51,122,55,23,35,-54,23,-4,-106,-73,-76,24,-5,8,54,35,-65,-41,3,-44,57,36,1,44,-12,-17,94,-55,38,-42,-23,23,-14,22, 
  /* [2][0][][] */ -20,-80,-108,-106,-54,-10,11,-72,7,-47,-82,-19,-27,-1,-58,-77,54,-12,-9,14,-75,-35,-44,-40,-46,34,29,2,23,-89,-55,-76,7,-56,29,-1,48,48,127,23, -72,91,77,111,-3,34,45,16,-37,-6,100,16,-45,84,-38,-19,92,8,18,39,83,47,4,70,-3,3,-66,73,92,60,79,25,57,-35,51,71,61,116,122,39, 47,0,-58,89,-7,37,-63,-79,-34,63,-16,-2,-8,-1,-78,-51,-74,-10,-15,-23,17,-75,-115,-92,-9,43,-85,40,65,109,-28,-12,-26,88,27,-35,82,7,88,90, 
  /* [3][0][][] */ -73,3,89,5,-8,16,71,116,43,-20,54,67,61,-16,-29,39,18,13,-38,24,6,28,68,70,2,-55,4,-10,28,8,12,56,-17,-17,18,53,-60,-7,-76,31, -16,78,49,44,16,19,60,48,60,27,7,-41,-41,-75,-40,-46,-33,45,-57,70,59,-13,57,-11,33,-23,-9,36,79,17,40,58,-25,-65,-38,-56,24,-34,45,43, -95,-99,-28,-5,-102,-119,-42,-71,-104,-10,-68,-73,-100,-89,-37,-127,-32,-89,-101,-10,-12,-50,19,-19,-53,-9,-108,-113,5,-96,21,-105,27,-36,-90,-60,2,-57,-83,-65, 
  /* [4][0][][] */ -18,-14,93,41,-37,40,-5,-12,30,0,27,44,18,0,60,-6,63,-70,66,-47,-21,-3,33,-70,5,-4,-52,-33,103,-4,20,-20,57,-24,29,89,22,122,93,70, -50,70,53,-64,17,59,57,-12,-28,12,24,90,60,-24,-2,-66,19,30,28,-25,41,8,1,-41,-58,-18,56,34,94,28,75,2,36,81,45,-7,31,45,87,127, 85,-7,-11,89,37,-10,-39,81,-52,1,38,24,3,-74,63,10,48,34,-46,-1,-5,53,75,58,9,47,53,29,-9,51,-34,55,3,65,33,70,106,102,64,90, 
  /* [5][0][][] */ 4,7,-3,-29,17,-8,59,-21,17,-16,5,35,17,73,3,82,-24,24,28,26,2,-19,22,40,-19,-10,0,16,56,78,-12,-11,23,65,4,78,43,66,-13,49, -40,-66,-43,-20,-11,-55,-19,-42,-25,29,-15,-14,29,29,25,-23,-63,57,-39,-7,-25,-27,-45,-41,45,-29,-36,37,24,-62,17,53,-21,-41,24,2,15,7,89,-10, -43,-127,-115,-62,-114,-106,-124,-98,-56,-94,-98,-96,-82,-18,-21,-8,-95,-43,-57,-75,-88,-60,-106,-22,-23,20,-62,-57,-7,-48,-68,-72,-58,-19,11,-65,-49,48,46,8, 
  /* [6][0][][] */ -72,-11,29,15,-77,-40,-49,-41,-39,-58,-80,-13,-43,-20,34,-53,-55,-12,28,-59,-39,-29,-16,-28,-11,-16,-81,-69,-87,-113,-45,1,-99,-100,-34,-58,-127,-89,-84,-95, 0,95,80,51,28,106,12,12,14,28,75,39,-25,91,52,-3,8,89,67,29,32,-25,37,-35,-18,46,-41,48,50,-5,-20,10,76,68,42,14,-42,6,-10,-42, -34,-46,13,52,7,8,36,18,89,-14,-15,29,-45,-33,-23,32,9,-25,-13,30,68,-23,-6,-74,-78,-8,24,-15,31,10,64,43,50,42,3,12,-1,12,45,-17, 
  /* [7][0][][] */ 17,-23,35,-25,-14,-78,9,-16,-79,54,62,71,104,-8,108,-35,64,26,127,95,26,28,-38,85,101,25,-30,55,14,13,-17,73,72,60,87,30,-6,-96,-87,16, -58,-85,21,56,-56,-101,-47,-68,-36,-79,-36,-46,-38,73,-39,-78,-53,18,-76,-4,-3,37,-79,-31,-32,-45,41,-49,-10,-64,-17,-12,-82,-11,34,-29,-77,-83,-87,-19, -77,35,75,-40,-43,33,-1,-76,47,-46,-34,-27,13,26,57,59,44,60,-29,26,64,-39,81,67,79,-12,45,126,-7,103,-35,7,81,-33,82,-54,56,-57,52,-46, 
  /* [8][0][][] */ 9,55,-21,53,-23,61,117,4,37,0,55,27,48,-18,-54,-5,-29,13,-59,-65,3,-52,22,-68,-24,-15,-23,70,-18,-1,-23,-27,-67,-34,-9,33,-11,-57,-20,-53, -21,68,51,31,-21,34,89,74,-12,100,73,-44,40,-47,27,-6,4,-29,21,-44,-44,13,27,59,-25,17,-17,32,7,55,-49,-49,-7,-5,13,-20,9,-42,-34,-32, 79,44,79,32,96,49,9,127,38,-3,78,37,-11,12,41,27,24,-1,36,48,-9,47,14,34,14,50,24,-4,23,11,42,69,54,-65,24,-63,-29,-8,-57,35, 
  /* [9][0][][] */ -13,-72,-29,-84,35,-101,-42,-22,-37,-53,-2,-74,26,11,73,-47,-43,-40,-14,-1,1,23,53,-48,53,40,-75,-68,37,-32,60,32,30,-29,39,85,50,90,86,122, -13,43,-91,-79,22,-25,-32,-1,-95,-83,-67,22,18,-46,-9,41,54,45,49,-10,-24,11,56,-33,-37,-42,-29,82,85,56,-38,-6,18,67,7,-2,44,9,110,51, 76,-26,1,-19,54,36,-88,-108,28,-74,-54,-64,54,45,-47,59,69,44,55,76,-1,23,-60,-31,-11,-77,59,-69,70,-36,32,-15,85,44,80,76,57,-22,127,52, 
  /* [10][0][][] */ -112,90,-98,81,-61,96,16,-123,-11,58,5,64,-41,-114,-29,10,-85,49,-61,-20,-85,44,70,-106,-79,-71,-21,-71,-54,26,-63,-8,-1,71,-29,23,-47,-93,51,-18, -93,-12,-78,32,-123,-46,70,-61,38,-26,-33,-6,-5,47,-117,32,-20,72,-94,-114,-48,46,93,5,-16,-100,-50,48,25,-62,1,38,19,-127,72,-80,-52,-118,94,-40, -81,-105,-63,-95,86,-122,-21,74,27,-31,-76,31,-38,90,10,-116,18,-94,48,-20,56,-4,-107,-60,32,-86,-76,-20,-13,42,37,-3,-54,-72,102,19,79,98,12,-16, 
  /* [11][0][][] */ 69,96,-98,57,19,-5,86,-92,-18,-75,65,-105,-20,-43,34,-3,-69,-2,78,-96,0,-105,91,17,60,39,-106,93,78,-107,59,-117,-14,-26,16,-92,55,-22,-127,-112, -96,-73,-41,15,-56,74,11,-95,43,69,-59,-118,-41,86,-27,-112,70,66,-33,88,-18,-10,80,81,47,75,86,-119,-58,42,70,80,54,-3,-113,-50,33,-45,10,-62, -11,24,-44,89,-113,28,-76,40,70,-33,-12,94,-4,-109,69,-84,-7,-65,-44,98,-95,84,-72,-33,-67,14,23,72,-22,45,-60,83,-23,-54,-28,16,-118,50,47,-19, 
  /* [12][0][][] */ 12,-61,-127,-36,-33,-19,-11,-91,-111,-70,-48,-48,-3,-50,-59,-64,-44,-60,43,-5,22,-29,-5,-71,-16,-74,-49,-63,-66,40,-58,59,56,28,13,56,3,-8,-61,-6, -46,-39,-98,-77,-32,-100,-71,-126,-78,-34,-75,-72,-68,-16,-53,-33,-16,19,27,-6,-33,37,-1,17,24,-55,-90,2,-23,-24,9,-4,1,-26,-43,-68,19,-54,-37,42, 12,65,19,52,44,68,-53,-13,-25,-17,51,115,62,100,-13,41,75,29,84,110,38,13,61,57,-69,-37,-3,-5,17,-43,-6,-14,-42,-37,75,-30,0,72,1,-4, 
  /* [13][0][][] */ -4,-28,-58,-49,-85,-21,-62,-40,33,26,-5,-24,-29,-35,32,7,-23,41,-56,-42,-73,59,42,21,51,-72,-51,-34,-55,-72,-76,-46,23,57,102,86,76,80,115,63, 27,-85,-50,62,-75,47,17,35,-72,6,-31,-23,65,5,53,-51,-61,-74,-30,48,-21,43,-24,69,46,-9,73,-33,-22,-59,13,-35,45,-53,-49,13,-12,85,75,93, -10,19,3,-85,-67,-96,-21,-127,-16,15,-36,-15,-60,-14,50,3,23,9,-104,-82,-13,-73,-6,-98,-76,52,28,-62,21,-83,-65,5,7,-8,-55,-48,-53,-50,89,-14, 
  /* [14][0][][] */ -84,-110,-35,24,73,30,-58,10,-45,-96,-12,53,-109,-48,-95,-108,70,71,-110,55,-79,45,8,-126,-41,1,-16,78,1,85,41,15,-73,-75,-49,-65,-110,27,59,20, 57,-23,-59,15,49,6,-6,-9,-88,45,-21,-15,-113,-29,-63,-61,48,59,-48,27,54,-122,17,-24,-111,41,-19,-123,34,-99,-61,67,-13,59,12,-127,-2,-6,15,-108, -122,-73,15,-9,78,-97,-74,-115,29,-75,66,-72,-60,45,-86,65,-114,62,-46,-77,31,75,-59,13,-118,-63,37,-65,36,5,-105,51,-61,7,79,50,-28,-117,16,73, 
  /* [15][0][][] */ -56,53,-41,22,27,-30,98,33,26,-44,11,72,60,-50,73,-11,-15,-32,-33,65,17,66,21,54,8,48,19,-51,30,-39,-7,-33,70,-11,83,16,58,-65,53,-76, -98,-28,8,27,-21,-28,12,7,-18,-41,42,-29,62,37,51,-33,-1,48,-53,74,0,20,75,-47,53,27,81,33,-50,-7,-20,31,-36,-63,-35,36,-24,5,33,-84, -36,18,1,-116,14,-108,-17,-127,-73,-86,-22,20,7,-61,42,-54,35,68,50,75,13,-11,-1,7,10,-31,-42,18,-72,33,14,-80,-96,-67,-15,-11,-82,-94,-108,26, 
};
const TfArray<4, int> tensor_dimension8 = { 4, { 16,1,3,40 } };
const TfArray<16, float> quant8_scale = { 16, { 0.0027710199356079102, 0.0025521831121295691, 0.0021350639872252941, 0.0027272410225123167, 0.0026938333176076412, 0.003210136666893959, 0.0035510456655174494, 0.0023670396767556667, 0.0028839036822319031, 0.0025395192205905914, 0.0016803644830361009, 0.0016956363106146455, 0.0028606906998902559, 0.0024511120282113552, 0.0017357949400320649, 0.0024170863907784224, } };
const TfArray<16, int> quant8_zero = { 16, { 0,0,0,0,0,0,0,0,0,0,0,0,0,0,0,0 } };
const TfLiteAffineQuantization quant8 = { (TfLiteFloatArray*)&quant8_scale, (TfLiteIntArray*)&quant8_zero, 0 };
const ALIGN(16) int8_t tensor_data9[32*1*3*16] = { 
  /* [0][0][][] */ -94,-82,-49,64,56,-101,-38,6,27,63,32,53,75,-77,-3,-98, -29,59,-57,-88,-97,-127,53,-8,-11,-100,7,-5,18,-76,-6,-126, -123,-57,-56,20,-53,39,-64,-54,46,43,-16,-63,53,51,-66,-70, 
  /* [1][0][][] */ -24,-70,-4,8,-79,-54,-31,32,24,31,47,-34,49,-57,40,-25, -65,88,60,-127,-4,-42,55,-3,62,52,-52,-30,-56,-48,3,-55, -12,34,56,26,26,-8,38,-35,90,-63,26,60,-55,26,-63,-65, 
  /* [2][0][][] */ -109,-107,-6,-92,57,-2,7,-93,-54,-64,-12,17,43,82,34,-28, 41,-91,7,-62,21,51,-26,-116,-18,59,21,30,21,-42,19,-46, 1,42,-102,24,-71,-86,72,-127,42,-30,-117,-79,22,47,39,64, 
  /* [3][0][][] */ -76,-11,-45,-50,-49,2,25,69,-15,35,-37,60,-10,-53,68,-26, 16,80,-54,17,-51,-55,-44,-14,-127,43,-80,-99,-108,59,-71,73, -75,28,-28,59,6,-77,-71,45,-70,81,77,-50,-60,-3,58,-26, 
  /* [4][0][][] */ -2,53,32,-39,-127,23,-62,13,72,65,-65,-69,-41,-114,-79,-98, -83,-4,59,-106,-40,-40,-110,-34,-3,10,-118,-79,33,-83,-73,-41, -36,87,86,-25,-94,-81,27,-20,-33,65,48,89,-103,91,-2,-33, 
  /* [5][0][][] */ 62,-121,89,8,-93,-120,46,-105,-38,54,68,-91,-105,60,-124,-13, -30,11,46,-70,-85,-13,-66,113,-80,13,-82,-127,-9,16,93,91, -106,74,31,90,-38,26,73,-86,-28,-95,-20,52,2,-10,21,-53, 
  /* [6][0][][] */ -9,67,120,-25,52,57,91,0,-54,37,16,6,-5,62,-60,21, 36,-94,-43,23,-115,-66,-23,-40,-64,-7,32,-33,12,-48,-62,-97, 1,-94,-9,-7,-127,47,2,-15,-73,-127,35,70,-22,10,47,-86, 
  /* [7][0][][] */ -89,45,-40,58,1,-66,70,77,-99,-48,47,-44,8,-127,78,-18, -71,77,27,87,33,-17,65,-86,32,101,43,-45,-57,-65,-40,-64, 53,74,-24,-64,-6,48,-83,-94,-10,-48,71,-35,36,-48,37,-36, 
  /* [8][0][][] */ -62,64,-27,-22,-7,-127,70,57,8,11,-15,63,-35,-62,39,11, 34,20,66,-65,-18,-87,-50,44,15,-79,-66,29,-32,10,-57,-54, -19,-39,-28,44,48,80,-61,-4,68,29,-5,32,67,68,-56,80, 
  /* [9][0][][] */ -74,20,127,-70,-4,72,71,51,-71,70,-22,23,-77,55,45,-20, 15,-18,18,22,-35,-52,-30,-98,-53,40,-40,19,-40,-66,45,-10, 69,-80,50,0,-2,49,-31,-27,-43,64,29,18,95,89,-57,-58, 
  /* [10][0][][] */ -20,53,11,-39,84,-54,127,51,4,-42,-54,98,40,-10,-74,-58, -39,-52,-5,-98,-100,23,-22,-58,-12,-126,-2,27,-45,17,-69,-23, -3,74,-54,-108,7,-72,-68,-25,101,-42,20,96,-90,65,75,-64, 
  /* [11][0][][] */ -25,-9,-55,84,-21,80,-15,70,40,-90,40,57,-62,-90,16,26, -81,67,6,55,39,1,-12,22,-78,25,38,14,-63,2,-16,-17, -91,43,77,69,63,-4,-60,-104,28,127,2,-47,-43,71,25,45, 
  /* [12][0][][] */ 33,-89,22,26,-33,38,59,86,-16,-14,-13,16,-74,-63,48,-32, -46,72,69,-78,102,-75,38,-104,-34,127,-12,-7,-26,-33,-32,-58, -38,5,-10,-46,114,36,-103,-87,45,50,-65,3,-57,-37,-6,49, 
  /* [13][0][][] */ -80,-91,-125,-47,-108,-11,0,-93,-56,-126,13,52,-20,-12,2,41, -29,60,17,-59,96,-53,39,78,53,-64,-18,87,52,-127,57,102, -64,54,52,0,-44,-3,1,-32,-53,-91,47,-101,-80,-46,38,28, 
  /* [14][0][][] */ -29,53,-33,-57,32,-108,87,-17,-21,40,-26,18,-64,24,32,17, -127,29,-26,-20,43,-86,-74,-24,47,-47,-15,2,-27,55,46,-77, -22,57,75,50,-3,47,-65,-46,59,-50,27,-44,-7,43,-8,-64, 
  /* [15][0][][] */ 55,-18,-19,-127,-12,-19,59,53,41,81,3,-32,-10,-1,-28,20, -13,-26,-4,18,24,44,-20,49,-64,76,38,-59,85,73,38,-40, 25,-35,18,13,83,26,36,-78,-75,99,4,51,109,-1,-28,-57, 
  /* [16][0][][] */ -51,45,-40,-63,-20,36,-127,-50,-75,73,48,10,-38,67,-34,49, 4,-14,-26,-77,9,18,22,-5,-30,81,-53,50,37,-13,-41,-81, 6,3,60,17,41,4,-8,-14,-51,25,43,29,-43,-68,-43,-27, 
  /* [17][0][][] */ 67,-82,-65,84,-71,56,-33,-21,31,56,-24,18,-127,26,42,40, 109,-32,-29,-16,-54,-24,-97,70,-50,56,30,-35,119,-72,-55,23, 116,41,-6,56,35,11,102,-29,65,-10,-15,71,111,-55,-64,-37, 
  /* [18][0][][] */ -27,-46,127,-75,0,93,4,20,-110,-40,13,11,26,127,89,-58, -89,-50,-38,-26,-52,17,-37,-3,-31,-33,66,1,9,42,84,-87, 24,-79,-38,42,-101,-44,-12,-59,-36,86,11,-89,-26,76,61,-13, 
  /* [19][0][][] */ -14,20,95,68,11,106,15,-9,-83,82,57,-9,-90,114,-8,60, 74,6,21,-36,-16,3,-23,-3,-91,116,63,-50,127,79,-11,-57, 43,-55,89,49,-50,52,-41,-51,-75,98,54,-20,55,7,-29,48, 
  /* [20][0][][] */ 0,-22,-12,20,-23,-22,-70,20,-90,64,47,64,-14,17,0,-86, 28,-60,40,-27,-68,59,-17,-11,-45,45,-8,10,81,30,-13,23, 127,30,30,-66,16,-91,68,-25,45,16,-10,-18,85,-23,-23,40, 
  /* [21][0][][] */ -84,34,66,25,-34,9,81,-32,-2,61,1,30,-29,14,-25,38, -52,-21,-2,-63,82,38,-10,19,-73,127,47,-13,77,6,56,-22, 11,38,55,-49,-32,-12,-97,-49,24,120,-68,6,26,101,52,-11, 
  /* [22][0][][] */ -11,59,49,115,-6,-48,96,-61,53,-46,-53,-9,-19,-77,30,-34, -24,47,10,-66,21,-29,41,-75,21,-2,55,85,49,-49,84,19, 2,49,63,127,88,-15,-56,74,0,-19,30,20,-57,15,-47,-2, 
  /* [23][0][][] */ -75,-38,78,16,-110,12,61,-127,-111,-6,24,64,-3,34,72,-56, 90,37,-38,-38,-121,81,-16,-112,72,8,-97,52,20,72,-59,-35, 13,-123,1,20,-84,-71,-110,-76,-30,-69,-79,59,-46,18,-71,-6, 
  /* [24][0][][] */ -73,-17,-127,106,-29,118,-10,110,-71,-90,-54,18,-73,-97,-91,81, -14,10,95,29,78,-3,41,-17,12,126,-74,28,66,-102,-77,-48, 33,37,-51,-52,8,-70,-30,46,-6,46,-69,86,105,18,-87,-17, 
  /* [25][0][][] */ -101,-25,40,-54,63,-106,100,1,-5,-19,-16,22,13,-16,19,-39, -15,48,108,6,11,-12,48,-10,0,35,71,66,-32,-20,-11,44, -72,-43,75,63,61,7,-32,-87,78,-3,-70,-12,60,127,53,7, 
  /* [26][0][][] */ -19,6,-38,35,15,-6,106,-93,15,-81,-3,-40,10,35,-48,18, -49,21,-11,43,81,-42,-74,79,-50,113,15,16,-4,-4,0,-11, 34,-96,-81,-62,-83,40,-127,-5,-42,-77,58,-92,-86,34,55,81, 
  /* [27][0][][] */ -25,51,-21,19,80,7,19,72,21,127,-66,30,8,64,64,33, -77,17,26,-30,-28,15,-45,47,-112,117,34,-54,7,22,-50,-4, 7,21,17,-57,11,-49,-94,6,-75,74,-22,1,76,117,76,16, 
  /* [28][0][][] */ 24,-55,36,-127,-37,44,-83,3,-10,-23,37,35,3,22,42,6, 8,-82,36,-10,-16,103,-38,28,-69,23,13,52,2,14,-30,-54, 127,49,3,-63,19,-6,79,-8,46,51,60,-65,84,-12,39,-46, 
  /* [29][0][][] */ 14,65,-100,-89,-61,-39,-9,-102,-122,48,44,-48,-23,-15,-6,55, 37,-103,79,47,-127,-77,-19,3,17,-30,44,2,-34,-41,0,-91, 2,-27,39,58,-72,114,7,-10,-103,-4,-101,24,-13,-11,44,112, 
  /* [30][0][][] */ -25,19,93,10,32,75,-11,-57,33,21,24,-8,-17,-47,-27,-14, 44,-46,-68,54,58,60,-124,11,-20,116,-29,44,54,-45,-53,53, 2,-46,33,-51,16,41,-109,-33,-87,127,25,36,11,42,24,-66, 
  /* [31][0][][] */ 8,24,-80,-37,-9,-79,5,-13,-83,-55,39,9,9,-92,-25,-57, 53,-18,58,50,-32,-56,71,22,-8,57,-6,15,127,-25,-4,-75, -49,26,16,16,-69,-30,46,46,76,10,23,22,-75,-46,-90,14, 
};
const TfArray<4, int> tensor_dimension9 = { 4, { 32,1,3,16 } };
const TfArray<32, float> quant9_scale = { 32, { 0.002035508630797267, 0.0029450878500938416, 0.0018696434563025832, 0.001929364399984479, 0.0018826641608029604, 0.0015502080786973238, 0.0026682054158300161, 0.0025750889908522367, 0.0028594206087291241, 0.0028227856382727623, 0.0020890370942652225, 0.0031957547180354595, 0.0025659033562988043, 0.0023435582406818867, 0.0030355909839272499, 0.0028344017919152975, 0.0030399030074477196, 0.0025731115601956844, 0.002329227514564991, 0.00311488495208323, 0.0033749551512300968, 0.0031254419591277838, 0.0028222193941473961, 0.001811547321267426, 0.0023551008198410273, 0.0028810417279601097, 0.0023767061065882444, 0.0027197184972465038, 0.0031179375946521759, 0.001691649085842073, 0.0028788840863853693, 0.0024781636893749237, } };
const TfArray<32, int> quant9_zero = { 32, { 0,0,0,0,0,0,0,0,0,0,0,0,0,0,0,0,0,0,0,0,0,0,0,0,0,0,0,0,0,0,0,0 } };
const TfLiteAffineQuantization quant9 = { (TfLiteFloatArray*)&quant9_scale, (TfLiteIntArray*)&quant9_zero, 0 };
const ALIGN(16) int8_t tensor_data10[64*1*3*32] = { 
  /* [0][0][][] */ -26,37,-2,48,21,-14,-79,49,58,-25,-38,28,-15,-75,-57,-98,62,-10,-17,1,-58,38,-48,-36,-38,-21,2,-77,-80,83,-39,-52, 4,-85,-57,57,-45,16,-12,-7,-3,-20,-82,-69,55,-71,26,51,76,15,-79,-33,-113,-111,44,34,-39,-80,-62,-48,19,78,-91,-35, -65,-100,-52,72,84,-72,-53,-112,19,32,-110,-57,-11,10,-127,-84,-53,-80,-47,-14,30,6,6,67,-47,-83,-12,-58,-73,70,26,36, 
  /* [1][0][][] */ 24,-127,-35,20,-51,9,53,-27,69,33,-47,78,13,-22,19,-98,6,37,-109,-61,-87,-75,-63,-72,-59,35,-18,2,-32,67,23,-65, 35,-37,77,-1,-103,-56,28,-7,41,69,-36,28,-21,-19,-70,-68,68,-5,-78,27,-44,3,-56,60,-50,36,-31,41,-125,39,-10,-44, -6,82,61,-21,66,60,-112,-31,-56,-85,-68,21,-75,58,-60,20,-10,-49,43,-110,-18,69,75,-3,-51,-52,-69,84,52,37,77,61, 
  /* [2][0][][] */ -37,80,-13,12,-35,1,-43,-16,-51,-32,-4,79,44,-13,-51,85,49,66,-5,55,50,28,23,-14,39,41,-19,-23,58,-27,12,-54, 50,67,17,-26,-18,45,-101,64,-10,-48,56,-20,66,-16,80,18,-18,-5,-88,-9,18,18,10,-37,-46,12,46,-42,-7,-21,-37,-18, -28,-96,16,34,22,42,52,-79,6,57,7,-80,-85,-114,30,-116,-29,-69,49,-77,-24,-118,-31,22,-127,-4,-84,-105,-44,32,-62,41, 
  /* [3][0][][] */ -42,-7,23,26,32,41,88,60,75,15,54,71,17,5,68,127,6,20,37,52,-21,73,7,25,-48,58,33,-16,-86,9,-45,21, -59,-20,-37,14,-52,9,-57,-19,-17,-23,-14,-3,-72,-2,-11,-4,-2,-5,-59,33,19,1,-38,-22,46,-75,30,33,-3,2,-30,-10, -30,49,-31,18,0,37,29,-56,-73,-16,-62,-18,-19,0,-72,-25,6,-25,-46,10,-35,-12,2,-37,-6,-77,-28,-32,18,-4,-53,45, 
  /* [4][0][][] */ 8,-65,-11,71,20,40,-53,52,26,25,-69,73,-30,-126,-51,50,10,-118,-63,93,51,-15,-84,12,-99,-96,12,-80,-14,97,-114,67, 17,-21,65,82,-67,88,-99,-121,-15,-12,-56,-123,-7,-67,25,-24,-127,-89,65,-97,-66,-25,-74,-36,-28,-1,7,-106,-97,-86,14,-49, -77,-11,12,-70,-27,-96,70,75,-52,23,23,-112,-54,29,13,-108,8,-41,70,34,11,60,-107,38,-46,79,30,-12,-27,102,45,-59, 
  /* [5][0][][] */ -20,78,-25,29,14,43,-70,32,68,-79,12,13,78,127,-1,47,5,-35,5,-16,-76,-45,52,29,86,-14,-63,-21,-28,-29,5,-44, -18,-7,-21,-6,-16,-19,-115,-16,55,-27,-1,68,-5,-3,50,-20,14,-41,-32,7,-2,67,63,-9,32,-17,60,12,30,13,68,-1, 49,-68,23,37,-36,13,54,-50,-39,88,-21,-58,-48,21,-13,6,30,-110,66,-9,-45,-50,-79,36,-107,-59,-83,24,0,-37,-90,-91, 
  /* [6][0][][] */ -53,20,-26,16,7,12,-41,12,25,21,4,-52,3,9,-25,-56,41,-24,-20,-24,3,-40,8,32,42,26,-75,-55,-8,-41,-19,-38, 43,-5,3,-21,-43,-41,3,6,0,9,5,34,-24,-68,25,-17,-38,-16,-13,-45,-127,-21,-15,-10,-38,29,-48,8,-50,-1,-34,-18, -12,21,47,40,32,-23,-59,30,29,-56,-51,47,-4,-19,54,-3,39,-50,-53,-6,11,54,40,24,-15,-24,33,-19,7,6,43,20, 
  /* [7][0][][] */ 33,-10,-51,18,56,25,-49,57,-11,-3,-22,-18,-5,11,-84,-49,14,62,15,10,99,-3,5,-65,44,-21,-5,65,61,-37,21,47, 16,-100,-12,65,-24,-61,-50,9,4,-13,-23,-33,21,-127,15,-58,-38,51,-68,-10,-92,-42,-48,-5,-48,23,-6,11,9,30,21,15, -13,7,69,-6,25,19,-125,26,-32,-71,44,9,59,36,-44,38,97,55,-60,34,73,14,4,-64,48,-26,-51,-17,36,-54,4,-55, 
  /* [8][0][][] */ 8,41,56,-31,66,-40,49,109,-120,-127,1,-63,109,-34,-95,-5,-100,-76,38,10,42,-85,-38,-79,69,-98,65,-16,-48,-65,54,-101, -66,72,83,-66,-85,-82,-4,-75,24,-74,-92,-45,-38,48,-56,-63,63,-79,41,-80,-70,43,72,17,-54,-95,97,83,34,22,-53,11, 36,80,17,24,-106,95,19,-64,-56,10,79,13,-119,49,-68,7,10,23,-54,-48,-112,-71,-90,-85,-81,-24,70,-11,-109,-34,-114,29, 
  /* [9][0][][] */ 59,59,-43,-10,6,53,68,95,35,16,32,25,29,48,35,1,33,-7,48,49,90,2,29,36,18,73,-43,-23,38,-34,9,-17, 38,-66,6,-22,33,-46,-39,67,67,-6,7,46,-3,8,51,-48,14,-91,-5,9,36,108,35,16,-47,25,9,-21,-50,5,8,-54, -19,-95,-42,14,59,51,-10,-123,-40,127,20,-75,-115,2,-26,-20,41,-7,65,-50,-43,-90,-60,-21,-104,-38,-69,6,9,25,-27,-27, 
  /* [10][0][][] */ -32,-25,-34,-41,1,-21,-32,32,39,5,-38,-4,33,-6,37,57,24,-35,13,2,-62,25,31,31,-36,-7,-57,39,-46,25,-10,29, 5,11,-36,-31,-35,-32,-76,4,12,2,-16,34,57,13,1,26,28,-27,-61,27,44,47,7,10,-11,47,33,58,47,1,53,15, -3,-14,-29,27,18,10,-15,-26,-30,127,-34,-50,-46,-9,-24,14,32,-6,60,5,34,5,-53,13,-19,-35,-22,4,19,10,11,-58, 
  /* [11][0][][] */ 4,41,12,51,-17,16,-103,44,56,-81,63,44,75,-14,27,-81,13,25,22,18,-21,-18,18,3,73,41,-1,25,3,9,-41,1, 37,-38,49,-37,9,23,-77,-22,46,18,35,17,-23,12,-21,-121,0,9,18,-58,14,24,64,16,-16,-8,5,-22,25,-2,-10,26, -21,-41,-23,-10,41,10,-93,-70,-31,-26,21,-74,-85,31,9,-5,-34,-58,-27,-127,-82,-65,10,-6,-37,-63,-89,-47,-20,-34,-48,-85, 
  /* [12][0][][] */ 30,18,3,67,35,-56,33,-43,-17,-104,15,-28,-39,-28,-116,-125,-62,-12,-69,13,25,13,2,-12,91,-84,28,24,70,24,-39,22, 56,-38,24,-61,-24,53,-49,-60,-41,-34,8,-20,-2,-50,-127,-26,-7,-42,41,-11,30,-103,-60,52,-29,-89,-72,-80,8,0,-31,76, -67,-45,31,39,-14,31,55,-3,-68,122,-32,-58,-23,41,-23,49,16,-62,63,98,-30,3,-52,59,70,-46,44,-2,1,-52,23,-27, 
  /* [13][0][][] */ 26,-46,51,20,-38,78,-59,10,10,-9,-116,11,-69,-14,-100,-85,66,48,-62,-115,26,-25,31,2,72,-95,60,41,-57,-99,-9,-20, 77,-21,60,-83,-15,43,-84,55,-103,-41,-8,28,-17,42,-59,-87,23,22,-6,-55,-87,-60,73,-35,-68,39,20,-68,-107,-68,-69,46, 93,30,9,75,-16,-37,-57,75,15,35,-101,-127,-67,-27,-127,117,-100,-65,11,17,15,7,71,5,-53,-49,120,-16,13,73,-19,-61, 
  /* [14][0][][] */ 44,20,89,-51,81,89,-12,-39,-108,-74,44,-76,-122,67,-25,-51,21,-44,-49,16,-29,-127,-125,-46,31,-117,-50,-83,99,18,35,32, 65,-77,-41,-31,23,-53,56,8,-95,-91,59,3,-61,31,17,-37,-60,19,-108,-121,35,-22,-37,-55,85,30,-57,-60,-13,87,96,-9, -14,-84,-22,25,12,99,33,-72,32,-9,78,63,59,18,-67,81,78,-51,-33,67,18,-30,-125,-126,-82,26,-4,-53,6,-25,-93,77, 
  /* [15][0][][] */ -19,-57,6,34,-26,21,-52,-54,20,35,5,17,32,57,38,39,63,-43,-47,-40,-65,7,26,-9,-18,-55,-22,65,-84,-34,-19,62, 33,-36,-31,-40,3,45,-18,2,54,-44,-17,27,46,-87,28,18,26,-27,-24,1,-67,28,13,-11,-31,44,-109,55,-87,21,22,27, -28,19,53,-27,32,-51,-5,-2,63,48,47,-21,-26,70,47,-14,41,-3,-19,-127,-84,-65,36,24,-99,49,-93,-18,-65,25,-59,-1, 
  /* [16][0][][] */ 8,-50,-32,-11,34,-49,-4,25,-47,-79,-20,-2,54,-13,-43,-49,-56,38,-41,-33,5,-49,3,17,73,-72,-55,33,43,16,35,17, 20,-106,-42,35,32,4,22,15,-33,16,26,-12,-75,-17,-19,-46,-31,13,-26,-15,17,-61,-81,45,10,-49,18,-17,54,-50,-52,3, -16,75,-11,38,57,-48,1,-25,-42,-57,-30,0,-33,-37,-53,10,20,58,37,26,78,-127,48,-41,42,-73,48,-91,-57,-16,-63,10, 
  /* [17][0][][] */ 17,-5,22,37,41,-33,10,-18,-32,17,-53,-57,15,7,-43,-52,34,90,-1,29,127,-40,-44,-14,14,-57,-44,-66,74,-1,-16,10, -26,12,27,1,18,36,13,21,-35,16,-16,-6,-26,-45,-34,-11,12,30,-7,8,-8,-40,-50,35,2,-21,-14,-72,-48,30,-46,12, -4,53,-13,18,-19,-12,-22,7,16,-60,37,36,19,-22,-3,2,-26,15,0,-13,-25,35,56,17,32,29,14,-42,25,-3,-5,22, 
  /* [18][0][][] */ 15,-55,-48,24,-12,-34,-33,26,18,55,-69,-3,-26,-123,-124,-67,-67,-41,44,-112,-60,-47,-109,-56,-127,-53,-112,6,-7,-63,27,25, -51,59,-35,25,-24,-11,-44,-37,-58,-76,-17,-62,-20,95,-56,-50,-48,-50,-47,-57,-62,19,-4,22,79,14,-45,-90,-65,46,10,62, 25,53,10,-6,46,-1,-9,25,-75,34,55,-51,-59,-86,39,-46,-113,-58,2,22,-89,-95,48,60,22,37,21,-115,-127,-17,30,97, 
  /* [19][0][][] */ -2,41,-57,0,28,-66,-32,-2,-70,-84,-59,-61,-61,-52,-15,-6,11,53,43,-45,-18,15,-2,76,-49,-14,72,-73,21,49,-35,-17, 28,-15,-88,-47,-44,-17,-71,68,57,75,37,43,-60,-82,-45,-87,-127,-111,4,-94,23,-58,85,-22,-7,-88,1,-48,-93,-29,-10,-85, 9,-125,3,70,-35,20,31,-69,-22,-32,-107,-80,-79,-36,2,36,41,-101,96,-104,-28,54,45,49,-101,-109,-103,-78,-23,80,-29,-75, 
  /* [20][0][][] */ -31,-25,-37,10,42,12,-48,-64,-61,46,1,36,19,-2,-23,-42,1,78,-42,10,29,-18,-15,-11,78,-80,-34,25,89,-45,36,-89, 47,-25,-14,-15,-44,30,-68,-64,57,30,-36,12,-57,39,36,23,-51,-40,-42,40,23,-49,-48,36,13,-55,13,-2,-98,-41,26,-10, -44,8,3,-7,-2,3,13,27,63,-42,-18,57,9,63,68,-9,-25,-6,-12,42,-40,55,61,-5,23,-16,17,-46,-127,-45,40,44, 
  /* [21][0][][] */ 3,42,-10,-20,13,54,45,5,-76,43,-61,3,-35,23,-15,-54,11,47,7,-68,32,-62,-57,-10,-34,5,-53,28,15,43,-67,64, 19,18,36,-23,-36,35,17,5,10,-27,23,32,14,22,34,-39,-63,-14,-6,66,-54,-55,37,28,85,-21,67,-29,-10,-57,32,127, 18,-10,62,-32,-41,-14,-63,-89,-33,31,-15,-36,-43,-40,39,-65,-70,-42,-10,-33,50,-58,52,22,67,32,-30,-7,-5,54,-29,45, 
  /* [22][0][][] */ 11,27,13,26,-8,-8,-12,-62,-101,15,-29,35,2,-55,-1,-57,-19,-63,-88,52,-76,-53,41,-110,15,15,-120,-105,-39,-40,-41,5, -71,-61,-114,3,37,-36,30,1,-44,54,-76,-27,-41,-43,51,-63,-39,-2,-39,18,17,48,-77,10,-108,-21,8,-2,-127,-85,-51,-19, -11,-66,1,59,-56,15,56,-5,40,-10,55,16,-47,-10,-50,43,-115,-80,-28,-15,-104,-111,-98,-69,17,59,-75,50,-70,-30,21,-63, 
  /* [23][0][][] */ -17,59,-13,-4,14,-28,-46,-18,5,62,-70,-3,49,-27,-70,23,-8,37,-76,92,127,81,-44,19,-12,-30,-54,-11,113,-3,56,-14, 38,-75,44,-7,18,2,-13,10,-55,114,48,-84,-38,-23,-34,73,34,69,10,45,2,-50,3,22,19,-67,-54,-8,29,6,31,-53, 32,74,-30,-36,-46,-45,-6,9,-41,19,33,55,64,46,-3,39,44,91,3,80,94,6,-1,-56,1,-19,-43,-8,42,34,50,47, 
  /* [24][0][][] */ -80,-79,-26,-58,58,-85,-56,-30,-61,-5,-66,-98,69,90,76,29,-58,60,91,-26,22,67,40,40,103,-47,-104,-61,-86,99,-81,-111, -91,81,14,-24,-67,-85,74,-23,-10,77,-46,-27,90,-74,-116,-113,50,-82,-54,-127,41,43,-97,-40,28,-41,-22,-93,-18,-6,-58,31, 15,-107,24,-80,48,14,-12,58,41,-97,61,-80,-110,37,3,-85,-22,-10,-27,-64,-100,-58,-79,36,-9,-110,-101,-16,-25,-78,-22,-48, 
  /* [25][0][][] */ 17,40,-1,-20,-16,-31,7,27,31,-11,13,1,59,63,18,35,22,30,6,-17,-17,38,35,6,37,26,-35,-37,-17,17,28,26, 9,28,1,30,-29,-34,-127,-11,49,-8,-18,-17,23,25,26,22,46,-14,-108,-54,-12,72,20,26,-27,45,26,-56,15,29,1,-29, -41,34,-1,-22,-12,-30,35,-2,-1,60,-21,-56,-47,-38,-38,-54,-10,-66,12,-101,-41,-58,-6,-1,-92,-34,-59,-60,0,-7,-26,17, 
  /* [26][0][][] */ -10,-65,33,-8,29,52,-49,-84,-114,-119,23,16,56,46,-43,-44,-53,-85,-111,47,46,-57,-111,58,55,-49,-93,-20,6,43,-35,-106, 4,74,50,57,-94,-29,-28,-1,65,-28,-23,-25,-64,-20,-27,13,-42,-127,-86,-110,33,11,-43,-75,-12,-97,-42,-31,90,-54,-81,-103, 11,-40,-3,-48,-51,-26,4,-102,-86,-3,-19,-66,34,-33,-100,46,70,-41,-91,16,-95,1,-24,71,64,9,-32,-6,34,-57,-72,-18, 
  /* [27][0][][] */ 2,18,-3,-64,45,5,34,-30,43,49,48,16,13,45,74,4,-37,-68,46,-36,11,88,48,6,37,74,-28,-69,-60,35,-66,127, -85,-13,49,34,67,0,-64,-7,-29,-14,46,7,-63,5,-34,-99,37,-104,-2,-95,-14,-61,53,-22,36,-26,11,-95,-19,25,-56,38, -6,-9,26,17,16,51,0,-100,41,-51,34,41,-56,-20,-31,-6,-12,-23,-15,-80,-61,-58,-57,-72,16,35,-65,-6,44,3,-6,-87, 
  /* [28][0][][] */ 5,32,-23,-38,14,42,-50,14,7,-44,-60,-2,-37,-26,-25,-51,20,-51,-5,-34,-18,-10,-72,-8,-43,-65,11,-76,-28,13,-69,-127, 0,70,33,32,22,42,-39,4,16,-16,44,35,49,109,63,55,36,17,-113,-121,-50,-3,61,39,54,37,29,17,-90,-29,53,-5, -40,-41,-2,-25,-44,-12,-27,8,-65,-18,-35,-19,-13,-88,27,-43,-16,-26,-1,-51,-59,-41,-40,-35,-21,23,12,14,17,-23,-2,64, 
  /* [29][0][][] */ -64,-2,-56,95,-28,69,78,35,2,47,-73,-9,48,-59,4,-43,6,-19,-53,7,69,-116,-45,19,57,-114,-127,-111,19,-46,-95,-5, -12,118,4,-49,-60,88,44,59,-63,1,-33,-51,-110,-110,-11,-64,-23,31,64,-24,-81,44,42,42,51,-65,8,-73,6,72,-110,-81, 78,23,-43,81,-62,80,17,57,-1,-34,-26,-15,-4,-55,-3,-55,-52,-118,43,35,-83,-112,-77,66,52,-32,-118,28,-30,-100,-76,62, 
  /* [30][0][][] */ -21,89,-36,-34,25,-27,-15,83,-38,-10,-24,40,72,72,37,-3,69,77,-29,-30,-13,-38,40,-19,51,43,-64,-5,97,3,-17,-16, -7,-28,11,26,-25,2,-38,40,54,-35,31,-5,-32,48,62,-103,-18,-71,-63,-124,-2,-45,44,0,-118,32,32,-11,4,23,-24,3, -20,-24,9,-28,-49,28,54,-82,-12,49,-8,-89,-101,-42,-59,-18,-45,3,-14,-64,-9,-79,-53,-55,-92,-68,9,-127,-43,22,-50,-26, 
  /* [31][0][][] */ -50,38,28,35,-27,-20,15,3,19,37,24,-23,38,25,22,17,13,-37,16,-113,-47,-30,15,13,48,30,-73,-33,-4,-29,-52,-34, -32,62,51,54,20,-39,-24,-27,-8,15,25,48,2,4,51,-21,29,0,-107,-121,-127,-11,-19,-48,-71,-7,-26,-11,-8,-37,-23,-12, -42,35,52,6,8,-23,-104,42,20,-53,36,-8,53,-8,13,-65,-28,7,-44,-118,-51,-35,70,7,-9,32,-43,-27,-52,27,-13,24, 
  /* [32][0][][] */ 17,20,-37,32,-57,30,61,6,63,-63,-89,79,66,35,-21,-52,-41,-15,59,0,0,-14,-15,54,-24,55,74,-21,-93,53,44,75, -43,47,54,-54,34,-7,-18,52,-22,-37,-11,-11,29,-70,-69,-125,-66,39,-1,2,9,20,-47,55,21,-127,0,27,-3,45,-69,50, -19,35,48,-68,6,-48,61,-57,-46,-25,-47,27,15,24,-46,33,17,-4,2,-67,19,-52,-39,-41,29,31,4,-32,10,-51,7,2, 
  /* [33][0][][] */ 32,-20,-28,-7,37,25,-15,-65,-60,-13,26,10,35,10,25,22,121,-78,32,75,75,106,-8,43,71,-6,-29,83,-34,35,24,79, 4,82,10,-36,35,-52,3,38,39,55,-40,-119,77,20,-8,39,87,1,50,55,127,-7,-68,-58,-10,-57,-96,48,73,11,-49,63, 23,-11,-47,-30,-36,-5,52,95,-56,103,-21,8,13,-9,-40,-1,-16,3,-44,-23,-41,7,-5,-19,-42,77,2,-38,-34,32,45,18, 
  /* [34][0][][] */ -1,-13,-9,-17,-63,28,-75,-25,20,21,-18,-96,12,-64,8,-90,-103,-57,18,-100,-47,-17,-42,-61,-62,21,55,-69,-12,13,-23,-2, 26,-44,-72,-71,9,13,45,-112,24,-91,-2,40,-127,-54,-83,-88,-8,18,9,16,-69,-41,-1,-49,21,7,82,36,-22,-42,12,-78, -58,-3,-21,-32,45,-1,-124,-86,-19,-28,-71,-9,-97,-64,24,12,2,-9,-23,19,-53,-119,-45,45,-68,-80,22,-110,19,-16,-32,-69, 
  /* [35][0][][] */ -101,78,34,-71,-4,55,-1,39,-40,-34,-100,-92,35,-84,-47,-124,33,-85,17,-18,-117,-69,-93,-72,-6,-18,-97,-41,-89,-61,-32,-34, 4,-127,-51,-81,80,52,16,15,-103,84,44,-86,-44,47,79,-60,23,-118,-53,82,48,-117,-86,-96,-83,-45,69,99,-89,-88,17,-23, -70,-38,-63,22,-95,-11,-100,11,-74,67,-41,-33,-78,37,-40,-60,6,60,-58,-49,91,-66,-105,24,42,-28,25,-18,12,-27,-77,33, 
  /* [36][0][][] */ 0,54,21,-15,34,-19,14,-27,-48,-47,-9,56,30,19,33,-20,-15,-50,-37,41,-75,32,58,36,-39,-45,-38,-13,-15,36,40,41, -14,-3,33,50,-9,-65,-87,18,-36,-39,-44,30,63,-58,11,20,-7,-57,-14,-5,-39,31,46,19,12,-1,1,65,72,-46,72,-32, 24,-82,56,-9,34,-9,70,-36,-33,101,-52,-76,-127,37,-10,-52,16,-87,99,-43,-24,-46,12,-16,-112,-16,-67,-24,12,20,-66,-38, 
  /* [37][0][][] */ 65,-22,63,34,-7,22,17,25,-5,-17,9,-55,5,-11,15,22,-52,24,-26,-7,-118,-83,43,-15,-9,-41,-24,-86,-63,-47,-91,-36, -56,-10,25,3,-18,-22,-87,-7,10,-26,-32,73,61,-123,-32,69,-44,-53,-9,-2,-32,66,-38,30,-47,48,29,10,-89,-30,38,-77, 17,-127,35,18,22,25,23,-30,-22,-29,31,9,-7,-89,-38,33,46,-12,-22,72,49,72,-68,-51,59,-70,-22,101,-69,-31,93,-50, 
  /* [38][0][][] */ -67,29,-14,41,25,2,-21,10,41,-86,67,9,13,52,47,-59,30,-56,-45,-36,-107,-17,29,-44,52,-2,-98,-78,-71,-21,22,59, -13,-3,46,-38,-45,-25,-27,11,21,7,16,87,82,-54,-16,-7,-14,-60,-2,-86,-42,17,-31,-14,-9,26,-16,-10,-58,40,-31,27, 19,-4,-42,52,31,14,-104,-20,-13,-34,17,-1,-10,-3,25,-29,-21,-41,-98,-127,-72,37,-4,-26,-21,-16,-71,8,19,4,-11,-1, 
  /* [39][0][][] */ 50,114,-6,-26,66,45,-78,77,-56,-127,2,-25,69,92,-18,-27,12,43,-40,17,69,16,61,10,41,38,-109,-47,90,22,14,59, 46,10,20,-39,-20,-22,-90,-7,43,-20,-11,-40,27,-61,83,-78,-12,-89,-59,-92,30,-14,51,-27,-48,-3,44,-53,4,49,-44,41, -8,-49,-12,-28,-14,15,69,-44,0,58,48,-74,-68,-15,24,-54,-42,-29,-10,-79,-110,-113,-74,35,-102,-63,-39,-99,50,59,-4,-64, 
  /* [40][0][][] */ 15,35,-17,-22,-2,-27,-12,-17,-60,20,-43,-29,-1,24,-75,-4,13,60,9,49,127,-13,-73,-2,11,-2,-8,-29,94,34,-35,-32, -14,-18,-47,14,20,-19,-37,-2,14,-13,13,1,-43,-18,-14,-15,10,6,-21,14,37,-78,-45,27,-26,-57,-2,-95,-4,-26,-39,29, 18,36,-24,-30,31,22,-64,19,60,3,28,42,55,-44,26,-12,18,-12,-64,-60,14,15,31,15,22,35,19,-96,-2,-17,-17,33, 
  /* [41][0][][] */ -83,-18,33,15,75,-68,-37,-45,-43,-58,13,-10,-41,2,62,-16,40,-11,40,-120,-22,48,33,-25,66,82,16,-50,-14,-34,-78,25, -41,23,46,0,-9,36,-109,48,70,-127,45,15,73,-39,89,-28,-74,-87,-56,-85,-85,-30,91,-4,-107,-23,105,-92,-72,56,38,-32, -77,113,-5,-85,-28,75,-45,39,-18,-60,70,60,-55,-14,24,-80,-9,109,60,-55,59,-117,-39,2,110,-13,-94,-17,12,62,-58,41, 
  /* [42][0][][] */ 52,1,-6,-41,3,-12,-2,5,4,-21,9,-18,5,-68,-19,-32,-73,-50,-45,-35,-75,-41,-66,-13,42,-41,-37,0,7,10,-22,-23, 19,19,-26,12,-23,40,-11,-3,-20,17,-62,3,-6,-43,-3,-33,-44,-26,43,-16,127,-23,-35,-16,-43,-20,43,-30,62,1,1,16, 7,95,-26,-25,28,-42,-42,67,-23,25,52,45,-2,75,-32,38,53,25,23,-12,65,-19,30,-25,54,50,-4,7,53,23,-45,36, 
  /* [43][0][][] */ -69,-93,-44,-71,-59,-23,-110,-65,-89,-10,-20,1,-127,-58,-9,10,98,-90,82,-71,4,-66,-110,100,37,-47,-75,-7,76,-88,56,-91, -81,-3,99,-55,87,-107,30,-83,-103,-49,-26,-84,-57,62,72,-60,-21,-9,37,83,-24,75,-56,-105,54,-127,-102,-14,62,37,43,19, -94,101,-19,10,31,-30,-29,-47,4,21,28,-51,-76,-78,-102,-73,33,34,-64,-46,5,-13,40,3,23,-86,-94,-32,-12,107,-99,48, 
  /* [44][0][][] */ -46,-62,21,-64,-79,91,-51,-40,44,48,18,53,-33,-116,80,-106,-103,-31,6,-114,-82,-126,-77,-71,-62,-94,53,19,44,-75,56,-38, -127,44,68,-33,83,-84,43,-89,-115,21,32,-16,-76,32,50,-81,-33,-117,-23,27,-90,-83,1,104,13,-41,21,24,-35,-5,-45,-55, -96,-32,42,-6,49,-68,-93,27,-117,21,45,17,-57,17,-20,41,22,30,-111,-65,-33,-54,-46,-55,-51,-7,-96,51,32,74,57,48, 
  /* [45][0][][] */ -30,14,34,8,34,7,8,-31,18,25,-4,-15,7,5,47,-28,8,9,-4,-47,-103,-91,56,33,20,-21,18,-41,8,45,-89,-22, -19,-57,44,-32,-10,22,-20,2,68,-3,-25,28,49,-124,-8,17,-90,-6,-24,7,-127,20,23,-37,-77,-28,45,7,-84,-32,-23,5, -23,-75,-49,-51,3,25,4,-28,57,-73,-23,32,29,10,9,31,33,3,21,28,-18,41,47,-34,20,14,59,33,-67,-40,45,-19, 
  /* [46][0][][] */ 5,18,-90,-66,42,-29,49,-95,2,-39,25,-123,-68,77,-81,-82,26,40,-93,-102,-69,-19,-33,59,-45,30,-23,15,-86,48,41,-38, 107,-106,-29,94,-42,-10,56,47,-69,45,17,16,-70,36,-39,-92,0,53,45,-22,-24,37,-51,116,41,55,38,-48,-70,-100,-74,22, -99,-95,79,-80,-56,62,-45,-58,-94,-64,-96,-94,-83,9,-11,15,7,-22,96,-41,65,0,-111,63,-95,-4,23,-127,-25,77,43,35, 
  /* [47][0][][] */ -35,39,2,50,-48,17,-25,22,-8,-61,19,64,20,40,-5,-30,-35,2,29,17,-71,20,34,-2,25,-43,52,4,-97,-1,17,-101, 22,-66,-27,-44,-30,26,-48,37,-9,-20,-28,10,38,-22,15,-39,-27,-3,-83,-25,-19,80,28,28,20,44,-23,63,-4,-27,-26,29, -52,-36,32,-1,-25,38,-48,-55,-2,60,-43,-100,-83,-3,39,17,59,-9,34,35,-2,14,-42,-33,-127,-55,-78,2,22,17,-47,25, 
  /* [48][0][][] */ -36,62,9,8,4,-52,-75,-69,-28,-35,-11,50,34,-30,67,-17,14,65,44,-116,32,4,-11,36,-10,-58,24,-76,-29,25,-79,-78, 84,47,75,50,-58,57,-20,39,-10,-3,-67,60,3,-73,-5,-67,9,-49,-104,-75,10,-15,85,-17,-14,56,91,10,-84,47,28,75, -2,-96,-6,-21,7,-4,-43,-8,23,-84,-45,-92,-127,34,-42,-3,-24,4,42,50,-2,-70,-36,-23,-54,5,-32,-5,-20,-3,-30,26, 
  /* [49][0][][] */ -95,-18,-106,46,105,-100,-72,59,-89,-3,-64,-45,-53,-105,-46,-14,63,-121,64,-47,-24,94,-82,-68,22,-72,-127,-89,-98,24,19,56, 33,-35,-89,-13,53,12,12,-32,-34,-76,-12,55,15,24,48,2,-99,-86,96,46,50,-86,14,75,-77,-107,-90,-56,-71,-40,-80,-35, 95,-121,34,-2,25,73,52,77,-120,-46,18,-73,-4,62,-37,52,-75,-72,12,40,56,72,-91,63,-45,-112,-56,-6,76,-49,60,-1, 
  /* [50][0][][] */ -108,-118,-89,-79,-38,73,-11,48,52,-32,-127,-99,-29,-80,-92,-126,-73,-104,99,-64,94,-11,31,87,74,-11,-65,1,-109,31,46,-26, 53,-6,56,-28,-18,8,44,-43,-13,45,33,-98,3,35,-19,-82,51,-12,-76,-58,-60,-16,-11,44,-39,-108,77,-68,80,65,-126,-21, 29,-73,63,-22,-92,-86,-11,-92,41,68,82,-62,-40,-11,17,88,25,-46,58,82,-18,-17,35,-11,-39,-124,-5,78,-8,3,-124,-77, 
  /* [51][0][][] */ 31,-4,-49,24,42,38,-31,19,-93,-27,-27,-62,-37,-32,-71,-55,68,63,27,14,127,-26,-58,-24,-104,36,-33,70,1,-16,-45,-75, 18,35,-25,-59,-18,-50,-9,-62,11,100,36,10,-45,80,-26,76,20,16,44,104,106,-67,-7,46,38,0,-33,44,85,-26,-48,38, 42,44,7,-53,-27,40,109,-61,-103,98,34,-79,-46,40,-21,28,-7,87,77,24,110,-78,23,5,-6,-39,18,17,87,-50,-33,47, 
  /* [52][0][][] */ 49,73,-55,-15,11,-20,44,52,41,35,69,-9,83,-46,58,77,49,28,16,63,94,-5,72,-16,-14,66,-50,13,43,27,-41,119, -31,-36,-2,34,16,-45,34,1,59,91,20,-16,-25,-75,-27,-88,-93,-49,-4,-75,-44,-63,-15,-11,-89,-2,-16,41,-99,-10,-48,84, -36,-54,42,-70,6,-12,-71,-87,-2,-22,-9,-18,-35,62,-31,-72,-46,-45,-75,-102,-83,-127,30,-44,-41,-55,-16,-33,-53,22,-89,-107, 
  /* [53][0][][] */ 22,18,36,18,28,17,-40,11,15,52,40,11,10,21,-7,-31,-31,-31,-7,-77,-127,17,17,7,-16,22,-91,-33,-34,-22,-47,-69, -45,-24,-18,-15,17,-15,-85,-37,49,-23,19,56,-1,-46,-22,42,-6,-40,-70,-47,-88,-20,46,8,-49,40,-23,-21,-2,-28,24,-14, 28,15,-25,-17,-44,-27,-30,22,58,-37,-10,58,61,-25,46,24,-4,28,3,-39,-9,0,47,4,17,41,-3,-20,-18,31,22,22, 
  /* [54][0][][] */ -38,28,-11,36,32,7,-32,-17,-3,16,43,-4,-29,25,-34,-23,-40,58,40,-15,28,-42,26,-29,58,-42,-49,-32,74,-10,-5,-36, -23,-15,-18,-15,-33,-8,-48,15,52,-28,37,45,31,-36,47,-14,4,20,-35,-57,-127,-11,31,-42,-42,-1,-25,-1,-44,19,33,-5, -5,33,16,-11,-34,-28,-53,40,8,30,-5,32,42,20,28,-57,4,26,9,12,-47,26,20,-22,15,34,-18,-21,-56,-12,6,25, 
  /* [55][0][][] */ -17,-48,-114,-12,-58,47,0,-84,-84,-87,56,9,-127,-78,-2,22,-125,57,15,-100,61,51,-37,46,-30,-116,67,-7,-110,-9,-47,-101, -71,-87,-45,-100,-123,28,-87,-95,-50,10,-12,-33,-38,-6,32,-66,18,-77,4,49,51,50,-50,4,-15,5,-92,-104,-52,-101,61,42, 65,7,-110,-64,50,-93,-34,32,-124,9,-86,33,38,-61,-117,-2,-113,21,-3,-20,-125,36,4,44,35,63,24,-1,-11,65,-50,15, 
  /* [56][0][][] */ 48,-2,-38,16,8,-49,-74,-28,-36,45,-27,44,50,-4,-55,29,73,22,34,112,8,61,-72,-44,-41,-7,-1,52,-86,-32,57,5, -29,-86,-27,56,-35,-40,-51,8,-57,15,8,-73,-49,56,41,3,106,-5,-84,95,41,11,-29,-22,32,-14,-30,87,94,2,-7,2, -37,6,7,-59,-20,8,78,63,-75,127,37,-34,35,-35,-76,49,66,-55,49,79,31,18,8,-9,-66,-40,-77,-37,53,-35,9,13, 
  /* [57][0][][] */ -55,-29,23,-65,72,61,95,13,-17,74,-16,-104,-119,-76,-64,39,-13,-97,10,-45,-51,-8,-24,60,-69,-127,-65,-123,-73,55,-33,-18, -80,21,-28,11,-27,-60,-61,53,56,-112,-124,-51,-86,-111,10,-68,52,45,-68,17,72,-64,-47,-13,-14,57,57,-85,-114,-10,44,-15, 9,29,-11,31,-70,90,-54,-93,-58,73,-22,-12,-41,-90,21,-95,-7,-57,-83,22,11,-81,-45,-51,-109,25,-35,27,-77,-38,-2,30, 
  /* [58][0][][] */ 46,-93,-14,2,0,-4,52,23,-19,93,-67,-58,-38,-127,-21,4,-113,-25,68,29,-9,-82,-40,24,-99,-8,-95,46,-91,17,23,-118, 34,4,-29,59,-43,42,-24,-66,-127,103,-36,0,29,11,-68,-46,31,79,-44,-12,43,3,-46,43,39,-59,-24,-35,109,24,-21,24, -49,52,72,1,47,-32,-95,68,92,-55,29,-44,-4,-85,67,-52,-1,-18,-93,-46,-38,-58,75,2,-4,50,23,36,-101,-22,-66,68, 
  /* [59][0][][] */ -37,-49,9,-87,-31,32,-60,-34,-87,-99,-31,-96,33,40,31,-117,17,27,52,-91,-14,-69,29,-29,-85,15,-74,-55,127,-10,-95,23, 3,-90,-16,35,-67,-50,112,24,-31,52,-13,38,-41,-103,-19,4,-23,-63,57,96,-2,-80,-2,15,44,35,17,-15,-10,71,-8,5, -7,44,-78,-44,38,-68,-70,-62,40,-58,-41,0,-31,-73,-91,-51,-120,-51,16,-80,65,-44,23,-29,-60,23,-76,-107,-72,-12,-108,-44, 
  /* [60][0][][] */ -32,39,-16,84,93,12,-9,39,-18,-127,-11,74,46,30,-97,-73,-58,48,-19,35,-14,-56,46,-49,68,-44,39,72,-76,-58,49,-86, 54,-26,33,35,-44,-19,-45,-17,58,61,-41,-18,70,-46,-87,-33,-45,-75,21,-35,-34,-27,25,-80,65,-43,-45,-13,-42,28,-22,-62, 52,41,53,52,-15,-16,-30,33,-17,95,-23,-1,44,55,16,16,-8,29,103,-18,-74,15,-72,0,-76,-18,33,-41,-94,-22,1,-49, 
  /* [61][0][][] */ -4,-48,32,-18,-9,-52,-101,-34,16,-41,-85,52,42,-36,-33,76,-37,3,15,23,-62,80,-49,-34,0,53,-71,78,-104,14,60,23, -14,-54,31,52,-35,40,-115,-9,-39,-25,42,53,47,-31,-33,34,36,14,-95,127,39,91,2,-61,48,59,-29,55,-25,8,-28,-91, 20,-110,47,-32,50,30,73,32,-56,37,-9,-109,-86,-35,31,28,-41,34,108,-34,23,10,-76,-20,-61,-37,-15,38,42,-63,58,3, 
  /* [62][0][][] */ 30,62,37,21,-31,22,10,3,25,-37,-20,56,40,-27,-6,18,57,81,-82,-22,69,-1,20,-21,-3,2,-8,13,110,-28,-29,-26, -19,44,-24,28,-32,46,-17,14,61,-35,52,3,87,-31,44,-14,19,-39,8,-78,8,34,14,10,-41,10,21,-58,-2,-41,26,28, -26,-100,-11,-37,-52,-29,-14,-120,5,-26,-54,-24,-96,-36,-29,-113,-1,-79,-29,-127,-11,-85,-26,34,-53,-70,-66,-44,-16,-6,-21,-35, 
  /* [63][0][][] */ 57,-20,-115,-113,-108,-48,-70,-49,-127,-1,-73,8,-84,0,42,-80,52,-86,54,14,64,20,-127,61,-48,-107,122,35,2,-29,22,24, 12,8,-46,23,38,-7,-8,27,-16,55,33,58,-122,24,-100,-107,-15,-121,-73,-88,-76,3,44,17,-18,39,-12,3,-64,100,66,72, -58,-15,-123,4,-30,70,-50,-13,-83,-119,48,-33,-22,52,29,-123,-119,-35,41,27,66,-55,-28,-52,-24,8,42,-52,34,14,61,37, 
};
const TfArray<4, int> tensor_dimension10 = { 4, { 64,1,3,32 } };
const TfArray<64, float> quant10_scale = { 64, { 0.0016431359108537436, 0.0015603835927322507, 0.0031521047931164503, 0.0025849705561995506, 0.0013315270189195871, 0.0028424796182662249, 0.0034864817280322313, 0.0021076030097901821, 0.0013343322789296508, 0.002498256042599678, 0.0039421003311872482, 0.0026766147930175066, 0.0021081503946334124, 0.0014295311411842704, 0.0012484960025176406, 0.0025459097232669592, 0.0025044342037290335, 0.0035416404716670513, 0.0021756719797849655, 0.0015851532807573676, 0.0025965310633182526, 0.0023507126607000828, 0.001455456018447876, 0.0025365666951984167, 0.001299308380112052, 0.0036078961566090584, 0.0015574569115415215, 0.0023550642654299736, 0.0031837383285164833, 0.0013939328491687775, 0.0026519184466451406, 0.0027020249981433153, 0.0022226301953196526, 0.0026217179838567972, 0.0020882347598671913, 0.0013562883250415325, 0.0024609556421637535, 0.0027156060095876455, 0.0023383188527077436, 0.0023750297259539366, 0.0034094119910150766, 0.0018672165460884571, 0.0032139215618371964, 0.0012773709604516625, 0.0014052776386961341, 0.0029196157120168209, 0.0014059827663004398, 0.0030960706062614918, 0.0021099571604281664, 0.0014324777293950319, 0.0013462175847962499, 0.002566272858530283, 0.0024673230946063995, 0.0036973354872316122, 0.0039091394282877445, 0.0014342318754643202, 0.0023876507766544819, 0.0014136107638478279, 0.0020205609034746885, 0.0019107924308627844, 0.0018985860515385866, 0.0021216541063040495, 0.0031121012289077044, 0.0014160122955217957, } };
const TfArray<64, int> quant10_zero = { 64, { 0,0,0,0,0,0,0,0,0,0,0,0,0,0,0,0,0,0,0,0,0,0,0,0,0,0,0,0,0,0,0,0,0,0,0,0,0,0,0,0,0,0,0,0,0,0,0,0,0,0,0,0,0,0,0,0,0,0,0,0,0,0,0,0 } };
const TfLiteAffineQuantization quant10 = { (TfLiteFloatArray*)&quant10_scale, (TfLiteIntArray*)&quant10_zero, 0 };
const ALIGN(16) int8_t tensor_data11[128*1*3*64] = { 
  /* [0][0][][] */ 26,-61,5,-54,-2,46,-114,16,-31,-30,-84,-17,-39,-48,-21,-55,-21,-10,-113,47,-115,-18,-5,-39,34,45,-4,-73,4,13,-33,38,-8,-34,-1,-91,-35,-50,-118,55,-74,59,11,-21,-74,-62,8,-73,-62,79,25,42,-75,-36,-68,-24,-34,19,-14,-65,21,-47,38,34, 48,12,-63,-2,-61,-83,-8,-35,38,27,6,-118,91,-14,43,-71,-29,-48,0,15,57,44,-105,-1,-48,5,68,-112,1,-8,-87,-68,-34,46,-104,-19,15,52,1,-80,56,-47,102,53,24,-28,-82,-117,-9,-52,-105,38,21,-89,-26,-37,49,35,-127,13,-117,-36,-55,-8, -74,31,-59,-46,-107,12,8,-2,-80,-16,-72,-19,19,5,30,-54,42,-78,-18,-84,33,68,10,-15,-59,-112,50,8,-19,-84,-74,-14,31,-94,-25,17,-65,33,41,-74,58,-56,55,63,-7,-42,54,24,-96,-12,53,-20,81,-127,8,-54,-106,65,32,-70,-33,57,-116,30, 
  /* [1][0][][] */ -13,12,-58,-11,17,-49,42,-38,27,-34,-36,-17,26,-10,-14,-30,18,12,9,-22,35,14,-12,-56,-32,8,0,36,32,-8,-61,51,64,-19,27,5,-22,-44,12,-19,-43,29,-40,-10,15,2,8,-29,-41,61,-20,-26,12,27,-5,45,-3,6,-55,74,32,-8,-68,43, -42,24,-3,51,-15,-18,20,6,-15,-27,27,-11,2,-30,1,50,33,5,88,-9,13,54,25,-39,26,15,-20,32,49,37,-15,2,28,16,-4,-3,-16,-1,14,41,-18,5,28,-37,-16,25,3,18,7,25,18,-35,19,65,3,-8,25,8,-11,-64,9,24,50,13, 35,10,67,-43,-11,17,23,-39,-12,3,-51,55,26,-19,-15,26,-8,-22,-35,15,35,-9,20,-77,9,22,-8,72,77,-12,-11,51,-17,-35,26,-11,37,-25,21,61,-14,25,17,-1,-17,36,10,-29,8,-6,23,-17,55,31,33,17,23,19,-6,10,-32,-31,127,18, 
  /* [2][0][][] */ -51,-53,-47,-5,88,-102,28,43,-3,-16,60,-60,-80,15,1,-52,-18,-92,48,7,23,-8,46,-9,-65,-3,19,-24,5,-25,-84,3,108,31,-56,63,38,94,-28,-52,-88,-53,1,1,25,-61,-5,-17,7,14,-38,47,-60,-76,-75,11,-74,-41,-91,14,22,-101,23,36, 59,0,-111,46,-38,-24,49,50,-61,-99,41,-2,-46,51,-4,-66,86,10,24,-16,10,50,-44,-96,38,-92,-20,53,-35,89,21,-126,16,70,25,-47,-109,-96,-102,-4,-77,-11,-93,4,-78,-127,-47,13,41,86,-78,0,-30,48,-21,77,-16,59,23,-24,-33,-39,-70,-49, -5,-33,-14,-19,-19,21,-79,-26,26,-87,-64,-22,-40,-74,-51,-85,-85,-77,42,0,34,6,-82,-32,-24,4,60,-9,38,5,38,18,60,-27,-45,41,-6,-15,39,44,58,23,-97,-65,74,-34,-14,-10,34,57,-21,19,-45,-88,-48,27,-80,23,54,20,55,-39,-86,68, 
  /* [3][0][][] */ 14,34,29,-45,29,24,-14,-12,-21,8,43,-5,12,-30,32,35,10,-46,-4,30,18,31,-24,-28,-11,12,0,-45,7,-24,-9,-4,23,13,-34,-7,23,-37,-25,3,-42,-68,12,-2,-3,-63,-36,45,4,-17,-30,-41,-21,-6,-31,-16,52,-8,-3,4,10,46,7,3, 34,-19,-45,42,32,-37,-29,-22,44,-26,-11,-47,-20,14,13,-17,6,-71,44,-12,-51,-16,18,-16,32,-8,-10,-24,27,-23,-42,-40,-23,7,-22,-1,20,8,-35,9,-38,-8,-33,-6,-21,-56,-31,-34,-1,8,-32,-39,54,-29,-33,31,-9,35,9,-1,-28,-51,-6,2, 38,-41,-63,32,-33,-36,-24,-51,37,23,-15,21,-6,-2,7,-18,12,-14,26,-35,0,-22,-23,-27,-1,-30,8,15,127,37,-59,6,-14,-35,-13,-16,-18,-13,-2,-67,-48,3,8,19,34,9,1,15,-28,59,25,34,-9,-60,-36,14,21,31,0,20,16,-14,-50,-1, 
  /* [4][0][][] */ 61,40,44,-66,-52,-116,50,-77,-25,-92,-35,-98,-8,-6,-60,-80,50,-27,29,7,-113,89,-24,33,-52,-53,-58,41,-32,-90,-107,-96,4,-88,-40,-44,34,-91,-38,-45,40,36,-7,-39,-72,-33,15,-37,-72,-34,-19,2,-42,42,-97,-24,-11,-20,-35,54,-36,28,31,53, -28,10,-115,-1,-53,-33,28,-108,-8,33,-50,-47,-2,57,-73,-2,-83,63,-21,32,35,2,-18,43,48,7,23,-114,37,38,-18,8,0,-58,-110,-36,-46,-69,3,43,100,-14,-54,-71,44,-127,54,38,-8,63,63,27,8,-125,-85,36,-24,1,44,19,-112,-78,11,-7, -12,13,6,16,27,14,-60,-39,-73,42,-25,-34,-33,-31,-5,-6,52,-22,-56,-72,-52,-82,-72,-7,-9,22,54,-43,-40,-29,42,-1,-83,-116,15,91,-50,51,-23,82,53,23,-59,-42,-45,-45,-32,52,-98,14,-6,52,3,15,-80,-117,-31,-53,-63,4,-18,-6,-20,48, 
  /* [5][0][][] */ -78,-97,54,-20,60,-110,-10,-87,42,-26,21,-123,30,-115,56,-78,59,-77,51,-55,-21,16,-68,-28,39,-96,20,113,17,0,39,-85,-85,-8,-87,60,40,-32,33,-91,47,-48,-117,-36,48,-119,-20,-98,-53,-24,-41,-61,-20,13,-116,-38,47,80,-67,39,-42,7,-30,-70, -49,16,49,27,-108,-109,-36,-25,58,68,109,2,7,-30,9,-50,59,-61,-53,-93,-28,-100,43,53,49,-40,-16,-54,-91,-33,-94,-68,-85,-5,-36,52,35,-46,13,32,52,27,86,86,-31,38,-42,57,-22,39,13,-118,-109,18,-10,-62,-46,-119,-9,69,-39,22,-49,54, 1,-30,19,-119,-57,-96,-29,-24,-57,12,-68,30,-13,47,-6,-94,-16,-1,-67,51,-84,39,-61,-78,-80,-76,-75,57,34,-28,-97,-127,30,-34,-27,-9,-10,-1,-9,43,10,-79,66,-36,-35,10,34,5,-43,11,57,-17,23,26,30,75,48,67,-90,-78,-58,-95,-37,-76, 
  /* [6][0][][] */ -17,55,-12,-73,53,-46,-22,-17,9,-83,-45,-4,25,-2,21,12,-44,-76,-66,4,16,-28,-22,-127,16,23,-15,-25,4,19,-56,14,-32,-82,-45,0,-36,-72,56,40,-106,29,6,12,52,-31,5,-6,31,29,20,-62,-5,19,-13,65,-50,-36,-17,0,21,-34,-52,21, -1,5,47,6,-24,62,31,29,-17,17,-9,-2,-24,-12,-17,25,48,40,16,55,75,24,1,-26,20,57,42,71,95,-32,12,61,-17,-40,4,45,-17,23,44,43,-44,66,28,-2,-21,79,-45,28,77,-4,61,-23,31,86,69,-20,28,55,81,-45,10,-10,79,39, 57,-2,67,-69,-52,3,75,55,18,-58,-19,49,16,29,67,64,59,18,5,-14,76,-4,20,-29,34,47,65,11,0,31,17,86,11,29,-2,-11,13,9,51,95,-93,109,-5,-44,2,83,27,6,74,-2,6,58,26,93,23,-30,-17,22,-17,50,20,13,81,-18, 
  /* [7][0][][] */ 34,-27,3,21,-12,51,21,-35,14,33,28,2,28,33,7,-8,-15,-13,15,-5,-61,-10,4,-87,25,-34,25,-7,-59,-33,-39,19,61,-8,-24,-34,-11,19,-33,-66,-35,-44,-26,20,-19,46,-26,22,35,47,-27,-127,23,-1,-43,-2,-17,-48,11,-24,-2,16,-57,-15, 8,-14,79,0,-52,-65,8,8,-23,-56,-56,-22,4,-7,15,22,42,38,7,42,-21,-1,8,-30,-40,-38,-11,-24,-30,17,-58,29,-3,7,32,18,-12,-3,24,1,-29,33,-17,12,-14,1,-35,-51,-19,30,52,-57,-19,38,-37,17,32,37,17,-6,-22,-1,64,55, 23,14,90,-15,31,60,-2,12,3,69,-48,69,-10,-19,5,19,-26,-55,-76,65,-7,-40,34,-44,7,46,20,41,33,-16,16,38,-12,-22,-16,-3,53,-57,-37,93,-37,-10,-29,24,25,-24,-7,41,15,-6,2,-57,-10,-20,48,-31,30,32,-2,25,18,45,92,10, 
  /* [8][0][][] */ -36,-19,-108,-127,51,-9,25,-7,-23,-94,-18,7,8,2,56,29,10,12,-46,20,-23,18,-31,13,12,-4,26,-19,-44,-45,-62,40,-18,-75,6,-14,-49,15,17,-78,5,-13,-53,41,15,75,8,-26,-49,9,22,-22,-24,-11,-3,-53,29,41,-49,-53,38,19,-124,52, -36,59,-8,-1,41,37,-27,8,41,24,57,-5,-50,-7,23,44,-73,77,-74,37,-20,-9,26,2,-20,26,-24,-61,-20,20,-15,27,70,81,19,-27,22,2,26,-42,45,-24,79,1,-23,28,-12,33,54,-17,23,-88,16,69,-7,-24,5,47,60,-59,39,62,15,12, 28,8,56,10,24,43,19,11,55,70,50,86,1,-5,30,41,-18,-1,-70,-18,8,-22,22,-52,-36,88,21,16,64,10,60,36,-29,-87,-24,45,55,-9,3,37,7,53,-9,39,-16,12,8,-32,46,-30,5,-32,78,5,74,23,-30,50,16,36,35,4,89,56, 
  /* [9][0][][] */ 6,-127,42,59,-43,-3,-74,-27,-56,-87,75,-43,57,-84,38,-41,-73,32,-23,-83,-95,-67,-73,70,-76,27,-14,-61,-4,-92,-107,-13,-3,-48,-59,-58,-30,-41,-90,55,-87,-8,32,63,1,-17,-107,66,44,-66,-81,54,13,-108,-71,-6,0,-29,-17,-63,-66,-76,-79,59, -31,-77,-72,-14,-13,-47,57,-73,-70,-87,-25,51,93,57,-2,0,-14,35,46,41,29,-112,-48,-85,-87,-57,-99,-14,19,79,-20,-25,-78,63,44,96,-53,-22,-126,-33,-68,-16,-44,-21,-56,51,24,-52,-78,-35,-122,-3,44,60,-33,-73,-23,64,57,-9,-113,18,62,63, -2,-123,-4,-18,50,45,1,8,-67,-19,-46,-104,78,31,5,-94,-17,-82,-33,-39,8,-23,-93,-34,-83,-40,48,-18,-57,67,-4,5,-22,93,-112,96,-61,-66,-118,-42,62,-121,59,63,-56,-26,-79,14,-58,43,-42,-48,26,-50,32,-12,-37,-16,-115,46,-33,-19,-82,45, 
  /* [10][0][][] */ -73,-113,-111,-34,8,-78,-59,-11,-22,-106,48,-64,-81,-89,55,-105,-92,-103,-76,-34,-107,43,10,-21,-70,-50,-39,5,13,-51,-45,7,-37,-25,-41,40,-35,46,1,18,-101,-60,-72,-50,10,-86,-54,-28,12,10,-15,-1,-28,1,2,-72,-77,-72,45,2,-78,48,-47,-74, -20,-66,-81,-24,10,-38,19,-111,67,-86,-16,-73,-3,-53,-75,-1,-14,-102,6,47,-37,67,-1,-122,-8,-6,65,34,-86,-8,-127,-36,73,-96,-34,13,-37,-7,16,-21,-10,-57,21,16,27,-9,-14,-58,-55,62,11,-62,76,20,-39,42,-1,57,-111,49,-2,-2,-77,72, -66,-89,52,6,-56,-80,61,-12,13,-68,-97,-47,-3,10,46,-51,-55,-86,-27,4,-12,-12,80,-114,21,-69,-55,-115,26,-10,-63,-22,-8,-40,56,5,-53,-83,-70,-17,12,-65,-93,-40,70,34,-22,6,-54,-47,81,22,34,-86,49,37,13,-77,-3,-111,-57,-78,7,47, 
  /* [11][0][][] */ 26,-6,-47,-43,-16,48,-98,17,44,6,-8,-103,-2,61,-67,-42,-12,60,-2,13,12,5,-36,-21,-43,-20,-11,-47,-111,29,-19,-61,-99,50,52,36,-80,28,-78,-41,88,4,3,-25,-57,-6,-70,-10,-61,53,44,-6,-80,-60,-57,42,-45,24,36,-126,-32,50,-76,-54, -48,-19,41,56,-41,-79,-5,-8,30,-70,-17,-115,27,-51,-12,-41,-61,-44,55,5,-7,-26,1,-33,-58,-103,31,-17,34,-67,-71,-34,-92,-32,-24,50,-68,12,-22,-17,-44,24,2,56,-33,-71,-3,-50,-51,-55,-7,-88,-12,-4,-4,-16,35,-61,35,10,-127,19,7,42, 59,-60,-97,-10,-30,-58,2,-18,31,55,14,-81,-55,-15,36,-14,-16,-87,-8,2,-52,-25,-54,-29,-13,-85,45,25,-68,-65,-5,-88,-88,-65,16,3,-31,-41,-70,60,-34,-1,4,56,-52,-10,27,-104,-5,-62,65,-11,51,26,-41,-1,-34,2,-31,-84,-67,26,-54,-65, 
  /* [12][0][][] */ -48,56,-38,-112,-82,-94,-49,-104,-114,57,47,55,54,-20,24,-89,95,-23,-73,-79,-96,-47,-84,-93,-73,-119,19,-23,66,49,-42,-53,-95,60,-58,93,-63,-108,-22,84,-12,-120,33,35,-25,-33,-35,-71,86,-21,27,-37,-26,-49,-127,-95,-102,45,19,85,-123,-40,-18,-93, 0,-69,-101,5,-125,28,56,-51,-94,65,-96,-30,84,40,50,-32,43,56,-48,-70,-100,-58,-121,59,52,13,66,47,-51,-35,35,55,-46,-61,35,-19,-30,-40,-25,-23,-57,-60,47,-92,28,10,-19,-96,-86,81,42,-24,-70,-98,57,59,-89,-97,108,98,-52,0,-1,5, -70,51,45,36,-48,-37,-113,-111,-6,-66,31,29,-70,50,-85,48,-30,-27,71,-55,-113,7,-82,-10,47,-57,65,63,-9,55,93,-61,-64,53,-114,-38,-11,0,71,-83,-122,24,81,-4,-118,-127,-78,-5,-28,-7,-37,-29,-53,-85,-57,-77,60,87,-62,-85,-66,-95,22,-127, 
  /* [13][0][][] */ -60,-33,69,16,42,-6,20,-21,25,21,-31,16,6,16,-24,-21,-61,26,-21,12,32,-62,-18,-17,19,18,13,55,-80,-12,6,-4,1,56,13,-26,32,29,-31,31,46,30,41,14,37,17,-23,-34,11,11,25,23,29,-41,-9,-33,-12,-13,72,8,16,25,127,11, 31,-13,-28,-36,7,81,54,-12,13,78,60,42,-54,17,-30,42,-69,-21,-71,4,-21,-47,-24,-11,-18,18,24,15,7,-10,4,31,-44,-15,-66,-45,-15,44,36,-29,-13,3,-14,-34,20,43,40,27,35,-1,4,-18,-43,14,48,15,26,-5,2,59,-13,37,-91,11, -13,-26,-18,-61,-48,-15,-45,4,4,3,21,-44,-40,-39,35,-26,17,-7,-9,-35,-23,19,35,-5,-12,-3,8,-57,-50,-22,12,1,22,64,-29,23,-22,-49,5,20,-23,-22,36,10,-38,-58,7,26,-3,23,-38,51,-35,-88,-60,-31,16,-8,12,-34,-28,43,-9,-26, 
  /* [14][0][][] */ -75,-43,19,-81,-12,-73,-87,-84,-8,-76,39,3,76,45,-50,10,68,-59,62,2,-54,-40,34,6,89,33,-42,-58,0,20,-107,-118,69,-25,-8,-51,-58,-4,-107,-111,45,-97,-26,-71,-19,-18,-37,8,-15,-77,-103,49,19,-9,-19,-90,-62,4,52,-68,52,-15,43,54, -74,-104,17,50,-34,87,53,20,-26,-100,64,34,-5,-26,-30,-76,67,48,-55,3,47,16,-27,0,-15,-108,24,-36,76,81,-127,-41,78,-46,-101,-61,-59,-95,-107,50,28,-36,-32,-50,74,-69,-72,-61,-87,-35,87,-82,24,-114,-33,74,-117,-53,-51,7,59,29,-125,-55, -23,23,-60,73,-31,-20,-3,-72,61,-47,25,-101,-61,-38,-37,-1,77,1,6,38,-73,78,-31,-44,-40,-102,33,-92,66,-40,46,-96,-21,14,55,-87,-87,15,-34,61,66,-39,-26,-32,77,-70,51,36,-108,18,5,-87,4,-18,39,36,22,-33,63,-13,-40,20,-28,-56, 
  /* [15][0][][] */ -68,10,-69,-28,31,-49,-95,-58,40,3,-4,-73,-31,-68,-22,-33,72,12,-3,-35,-59,8,17,-127,51,44,-76,-73,-79,-58,48,-9,52,-42,-16,-47,-99,-26,-82,-7,-75,-52,7,5,-23,55,-39,-53,66,-47,-42,22,-97,24,5,26,38,57,-9,-63,-49,-23,-87,16, 27,17,-33,33,-82,38,-101,44,-22,-70,1,-50,-22,40,-98,12,-29,-13,2,59,-38,17,-5,-101,-16,-68,-3,-60,6,16,18,18,45,6,20,-14,-105,41,-84,-35,-35,-105,-8,39,-19,-45,-82,-91,9,20,9,-24,-61,-50,32,-79,54,-45,-18,-7,20,1,-33,12, -19,35,-49,17,-40,-79,-74,-76,-83,59,-20,-43,-7,-76,44,-39,-94,-102,52,-13,44,-56,-34,14,-12,22,76,51,33,73,-57,-4,-65,-20,12,-77,-56,63,-11,-64,33,63,-14,-80,-89,-54,-27,-68,13,-27,43,-72,-37,27,-77,50,-77,-97,-94,29,40,-22,-9,20, 
  /* [16][0][][] */ -9,-14,37,-94,-35,5,1,27,-22,33,18,14,-34,2,-5,11,6,32,-23,-3,28,57,0,44,-1,46,-37,-24,4,5,-16,28,-55,-85,27,-8,42,7,34,9,65,-8,19,-16,35,45,-22,39,-2,32,-12,-25,-26,21,-2,37,35,-39,-46,11,19,-1,39,30, -17,9,127,-13,-14,4,-26,-17,-18,73,16,-19,-21,-1,-2,27,-48,-11,-3,28,-6,-13,-32,-83,-21,29,17,63,51,18,68,-14,-55,23,-48,37,-12,-56,-2,51,-76,22,-4,35,-16,-40,-24,-22,35,15,-22,-15,75,-37,-36,-30,-7,-18,-58,37,-43,0,91,8, -10,-7,-80,35,33,-9,4,-5,10,-15,-46,-25,8,29,27,-49,-75,-79,-55,-21,-13,-23,-5,-77,13,-20,-31,70,-43,-33,32,5,0,-55,63,8,-31,26,27,-12,-62,13,-11,-7,-1,24,37,-27,2,31,-2,-42,-18,4,11,3,-32,2,-33,34,-44,-29,-21,34, 
  /* [17][0][][] */ -39,-40,-12,4,-5,32,21,13,-27,-10,-25,12,11,39,22,0,20,25,-53,-38,36,23,-1,29,12,10,43,-43,127,-20,-41,-1,-60,-23,-13,-26,21,-13,8,-13,-13,-21,-2,35,29,7,20,-36,-29,0,24,50,17,-38,11,30,32,-24,18,-55,16,17,-26,-4, 8,-25,-15,-56,-19,-41,-42,29,-9,-25,84,18,-53,-12,-27,22,-19,7,5,-5,-3,-2,-13,-46,34,-18,8,-24,-52,20,12,-18,-44,4,34,-50,-36,36,-50,-70,25,17,20,8,12,32,14,-35,-42,-50,14,2,-28,-23,-14,-50,-33,11,46,-94,-49,-11,-60,-18, 20,18,-48,-19,-5,14,69,60,-19,0,48,13,-85,18,13,70,-65,68,-3,4,31,47,-10,58,5,41,-36,-75,-8,-23,-14,-4,9,-7,39,-1,27,64,45,-16,0,17,11,-8,55,42,-6,67,2,-34,-2,17,-49,-5,-3,-22,16,-1,-32,-1,-19,15,-33,1, 
  /* [18][0][][] */ 5,23,31,51,-2,5,-23,-7,2,7,31,0,-35,-2,47,43,-82,-66,85,-29,-22,97,27,-60,19,30,23,-30,91,-53,47,-20,97,27,23,-6,-32,61,60,40,16,72,-2,-39,56,1,-15,-30,27,50,52,88,26,20,45,-28,-28,64,-2,1,31,-6,-25,1, -53,6,9,-13,10,-83,-39,-41,-1,-15,-127,5,25,61,-33,37,44,-90,77,5,-25,19,-31,-109,-17,-21,-3,6,50,26,-38,50,8,8,-18,16,-62,-28,-32,-49,-88,-46,-78,1,44,15,-14,-3,-7,-36,7,-31,-95,-25,40,27,-5,-17,-12,-73,33,-44,24,11, 50,6,-53,9,4,-1,10,36,0,3,6,7,47,50,26,-41,-16,-32,75,71,-8,52,1,-69,16,35,-33,23,4,13,4,-2,61,-27,18,28,7,58,16,9,29,38,-9,-7,0,25,22,-28,-13,0,8,-3,-57,27,48,-5,-29,15,26,1,-14,45,-32,15, 
  /* [19][0][][] */ 45,19,85,-65,87,18,30,-18,-29,-3,-71,-50,13,-51,1,-33,-15,-26,-54,-19,41,-84,-91,29,57,18,22,-109,17,73,53,-113,-34,-7,-10,-17,-91,21,-70,-66,-64,-12,-18,-21,3,20,32,21,-91,-30,12,-13,1,-56,41,98,-23,35,-34,-62,-56,23,-60,-18, 56,20,-6,63,-60,-2,-2,-80,25,-9,-2,22,-66,-11,-32,-36,19,-80,-29,-18,-6,59,-23,13,35,-54,-40,-88,-94,18,-100,-35,96,-100,-30,-84,-31,-7,-127,36,49,-12,5,-82,-94,-83,-25,-125,27,32,40,-80,-37,-44,22,-18,-44,38,-111,18,-40,-26,-79,-63, 6,-36,39,86,22,44,-51,73,59,-5,-8,29,27,0,60,25,32,-38,20,-7,5,13,19,45,4,-80,-8,56,3,77,-19,-80,56,72,17,-67,62,87,-103,-85,-9,-23,28,76,108,-2,75,-91,-33,106,86,36,-16,6,61,55,-18,83,-54,-46,-75,-90,12,-39, 
  /* [20][0][][] */ -40,-8,25,-12,2,-12,-99,15,-24,-74,-2,-30,-11,-46,25,-22,-80,4,18,-32,-53,-4,22,22,-27,-54,24,-47,-24,17,22,-48,-72,-62,-31,33,-9,47,-73,89,22,-30,23,2,-12,-73,-20,-30,-13,8,-35,-44,-72,-13,-54,-2,-45,23,-7,113,-48,-82,10,-3, 38,-22,-56,16,11,-4,2,-18,35,-42,-10,18,-27,-41,-10,15,20,6,22,12,11,24,-35,-44,-17,64,2,61,10,-28,21,-14,-52,-60,31,29,-67,-3,-17,-14,-5,23,-30,-37,-51,-10,-25,-127,1,-13,14,15,-1,-7,2,27,-65,-9,-27,73,-47,-51,-28,18, -16,-22,-10,5,-21,-34,38,33,-36,-22,-59,-73,42,-10,-15,6,-23,-5,4,19,55,-6,-32,-13,17,-44,-31,-66,49,-15,-72,35,71,-39,-58,6,-33,71,33,-34,13,52,1,39,12,59,-30,-32,-49,30,0,-34,-54,21,67,29,-3,-28,-28,-46,60,13,-31,-24, 
  /* [21][0][][] */ -55,38,18,-2,-9,4,-38,10,16,-57,26,-55,38,24,20,31,93,109,15,-48,-23,28,-22,78,8,-59,47,-21,-19,-48,-22,60,66,84,39,17,42,-24,-6,40,113,-52,18,57,-6,28,41,-29,-46,39,-2,30,29,19,-50,-31,48,-40,104,7,-14,-30,50,16, 31,-68,127,39,49,-14,-57,-97,-50,53,21,84,69,-66,18,-36,-24,27,11,-51,-10,-1,-13,-67,4,103,-27,65,-34,39,26,-38,-30,19,-23,27,70,-28,-25,110,-38,-8,26,55,-22,8,-29,-66,-1,3,52,68,9,-44,-30,34,-46,-28,19,24,-9,-21,40,36, 6,-41,-62,-23,23,-18,-16,-70,-50,16,31,35,38,0,42,-30,-1,-83,-45,-26,-17,-28,55,-41,-28,22,-45,-35,-68,-29,-23,-11,-5,-31,103,-40,1,61,51,-7,-84,33,-48,-51,-56,17,-44,-75,35,-27,45,-28,-23,-40,-44,-24,3,-31,54,-21,-4,-87,-31,-27, 
  /* [22][0][][] */ -49,3,16,33,12,17,-36,-71,-2,14,35,-36,-91,24,-52,20,-20,-2,-36,48,5,-49,66,-55,17,29,29,-36,-110,8,-46,28,-52,127,18,13,46,-21,3,-6,-34,-107,9,45,-36,-55,-24,14,-44,36,34,14,16,-29,-52,-24,68,63,5,-59,-43,29,-60,-33, 41,-63,-99,46,31,-23,-42,-5,-64,-1,-45,-49,-16,-56,-45,-67,-79,-50,-20,-34,-25,-4,-15,-75,10,-17,34,-4,-6,-28,5,-2,-42,-30,50,14,6,-51,-49,-99,-86,14,-27,25,-5,-62,44,-97,-62,-13,-25,-45,44,-32,-30,-6,-18,0,-4,-44,-32,-84,18,-43, 14,3,-14,-9,49,-73,-15,-43,-3,-51,0,20,-33,-32,-45,-82,-50,-25,3,-20,-21,26,-37,-71,46,-32,26,-16,-18,-56,-15,-87,-34,-41,75,25,24,34,-73,-45,-69,-92,-46,-3,15,-30,46,-59,5,4,26,-56,-79,-42,-24,44,-6,46,-99,-12,-58,-51,-62,18, 
  /* [23][0][][] */ 7,-11,21,52,23,5,-14,-17,34,-42,21,-17,14,47,-5,51,-3,21,55,1,19,9,-29,5,26,-22,6,30,36,-2,3,-6,48,102,38,-13,25,42,26,2,-16,-18,12,11,49,-13,-30,16,2,-1,31,-18,-17,23,-6,6,31,38,-50,-72,22,-51,-57,10, -42,42,-56,-108,-31,-53,-7,-52,-16,-69,-21,-10,37,30,-27,-33,-7,-39,-63,-3,-31,-12,-22,-105,-35,-58,53,6,-89,13,-46,23,8,-56,-43,38,-46,-53,37,-75,-127,-15,-97,14,11,15,35,-64,5,-13,-4,-43,-82,-10,2,-49,-76,43,-14,-72,30,-46,-25,-23, -33,18,-18,-10,2,18,38,41,43,-25,71,35,-50,55,-12,-9,-71,-57,43,-45,-22,18,-9,-74,31,53,-14,-51,-75,28,-1,1,53,17,-55,3,28,58,3,-13,37,28,13,-36,49,52,44,20,-2,26,4,-7,-50,9,-34,0,40,54,-14,-13,-11,21,-20,20, 
  /* [24][0][][] */ 32,-13,-37,35,-20,105,29,76,3,38,82,39,20,-59,26,-33,-4,-20,-4,29,17,30,26,-57,-36,34,3,-16,-12,2,-18,-20,65,12,14,18,62,86,-4,-3,-26,25,-20,-12,9,53,-14,60,52,39,-20,-69,-56,-2,-4,-31,-25,-37,15,-33,10,22,16,-7, 5,-22,-39,-28,31,-73,-50,9,-46,-54,-16,-42,58,21,-18,-33,30,30,105,-8,22,1,21,-4,-28,-108,-24,-42,-86,-41,-34,-2,-36,9,-40,32,-5,-30,-75,-38,64,-6,75,-34,-23,-1,-48,-34,-13,32,-26,82,4,-48,22,-21,-15,-8,57,21,-50,-25,-53,-15, -23,54,-83,8,-24,9,51,9,44,-36,66,-23,-5,1,22,37,-34,50,42,54,42,11,-12,35,27,-15,1,-13,97,-2,-51,19,-37,-32,-46,-21,-2,61,86,-72,99,-5,-84,-26,27,55,48,52,-53,34,-28,-43,-83,80,67,-8,-26,28,-21,52,30,-8,-127,-8, 
  /* [25][0][][] */ 19,-11,55,-35,-43,62,-53,3,-32,55,13,-1,-98,14,32,67,-9,-45,66,80,-21,-49,-18,-15,-48,-8,-20,-69,-108,-31,-21,-10,-63,94,-16,-12,58,-44,-32,21,-46,-62,34,43,23,-38,-33,7,-19,-11,24,-31,-28,13,-87,24,-2,12,44,-115,42,9,-23,9, -50,-66,-88,78,2,-87,16,-40,10,-7,-13,-62,-44,-37,51,-27,-23,-10,13,14,-62,34,2,-19,-12,15,15,1,-20,-25,-53,15,-99,3,3,-10,-15,-15,-40,-1,-10,-44,-2,-12,-60,-53,15,-94,-44,15,-3,-61,-28,-45,-6,2,14,-32,28,-13,-35,19,-11,17, -52,-1,23,-64,20,-42,-31,-17,-58,-6,-70,-52,-2,-2,-41,18,-48,30,49,1,-41,-60,-57,-53,-17,-4,-6,-33,127,-38,6,-50,-8,11,-28,-37,-49,33,35,-28,-67,-8,-13,-12,-58,16,41,22,-11,23,21,-69,22,-41,-48,-15,15,-25,42,-62,9,-11,-47,9, 
  /* [26][0][][] */ -31,-50,16,-27,-18,-48,-1,8,31,-44,6,-38,27,13,6,-13,-22,14,-7,27,27,-21,-16,2,26,24,-2,-26,-70,13,-15,-15,-27,-31,21,-14,-23,12,8,-30,38,-66,19,-25,-20,-38,26,-45,-12,-1,-27,-16,4,-44,-42,-16,36,9,28,-28,-16,-31,-27,-1, 11,-18,-54,-40,-10,-50,2,28,-29,-29,38,-45,-11,33,8,-98,5,43,48,-23,44,4,-14,55,16,-94,-11,-20,-52,6,-97,-55,-76,31,26,-32,-96,2,-127,-96,98,-28,65,-36,-13,4,-10,-38,-15,-2,-33,58,-60,24,5,17,20,4,61,23,-90,54,-119,-32, 12,-33,-100,-69,-18,69,58,6,29,-24,88,-91,-36,-24,-15,31,-60,28,38,-30,42,-17,-13,35,34,-15,29,-22,4,5,-44,35,-35,40,40,29,17,43,47,-93,49,-29,-16,21,11,29,31,55,2,15,16,-14,-113,69,24,10,40,22,28,-50,-28,97,-80,-13, 
  /* [27][0][][] */ -20,-29,-72,-16,4,-55,-30,-59,-33,-22,15,9,-11,-53,-5,-69,28,-22,-79,82,-52,-39,-26,-88,35,-25,61,-8,-26,48,-3,-19,5,64,36,-33,8,-19,1,-10,-85,-11,-9,-39,-35,-72,-37,13,-18,13,-13,77,-17,-54,-32,-25,-74,-30,9,92,-14,-42,-11,-42, -21,-19,27,-29,-19,96,-30,16,-19,39,6,25,39,39,6,57,-14,-7,-3,23,-40,68,41,-60,-27,95,-28,95,110,7,85,43,-16,-63,56,-54,16,8,0,84,-23,32,-23,15,-9,-47,-6,-39,34,58,-5,-39,59,25,19,26,-17,-28,-4,28,-22,-23,29,30, -13,-40,37,-30,7,-124,73,9,35,-115,-127,-55,71,-16,30,2,-25,-6,4,64,51,-47,16,-118,2,0,-1,42,0,-12,-7,26,24,-29,-48,-42,-4,-56,-8,-60,-91,15,35,39,-16,12,-20,-69,16,-51,-26,7,-59,24,-1,-37,-36,-16,11,59,-24,-39,9,17, 
  /* [28][0][][] */ 55,-59,102,63,73,70,-8,-53,-11,79,38,30,5,70,-47,53,67,21,13,-38,37,-35,-35,33,47,95,-16,-24,-6,-55,-63,-89,-113,127,20,13,-9,17,-46,-14,-79,-8,49,-2,-34,-25,40,55,-24,33,77,110,43,-89,-35,40,83,-44,-53,14,-37,35,13,18, -57,18,-21,47,-47,-66,-54,-69,3,18,-102,-41,-28,-71,25,39,45,47,75,-8,-89,3,1,35,5,15,14,-77,56,14,7,10,-104,-33,87,43,-54,-99,16,-83,31,-68,-23,-45,-39,-13,-6,-12,5,-39,-20,-23,-22,-89,0,-44,-69,9,-28,-100,-105,-15,40,-69, -68,-37,60,-24,48,0,-51,23,-11,-27,1,-48,10,-35,-17,-28,-76,19,28,-8,18,10,-34,-47,55,-6,-32,-32,86,5,-47,34,-60,-71,78,-1,44,-55,-74,-66,1,10,-14,5,-21,5,0,-25,11,32,50,-96,22,-26,36,20,-20,-12,-55,19,-40,0,89,-33, 
  /* [29][0][][] */ 31,-20,-120,-22,43,-72,-37,51,78,98,-6,-41,-67,-35,-6,-48,-6,43,-52,-9,-37,-40,-55,-106,-43,46,-8,41,-80,-61,-15,-10,-63,-22,-82,21,-49,-3,63,29,-98,-19,-61,-19,-15,-30,-36,-113,59,95,43,17,40,-29,34,26,10,26,85,-3,-123,-127,41,-34, 26,-27,-14,3,-76,-6,-46,7,-14,-55,-20,-24,66,-94,40,28,53,2,-16,-73,-23,-12,35,-56,63,-68,-43,-68,-31,-24,-14,-21,-119,19,-30,-7,-46,-63,-74,24,-29,-50,-65,59,38,-28,-49,-59,74,-13,39,-17,-54,0,-91,18,-90,-59,32,-9,-24,-39,-78,-60, 22,-48,-47,-20,31,-22,-114,-6,10,-34,11,-30,-43,-29,4,15,-51,12,-42,-99,44,54,-67,28,27,1,60,-53,24,-7,-87,-86,-42,39,61,22,-88,-66,-27,-44,-5,35,-18,-68,-7,-116,-33,-35,33,75,-37,35,6,24,-94,32,-63,-34,-14,16,26,40,-62,-21, 
  /* [30][0][][] */ -4,-42,-45,5,55,-117,-18,17,-32,-87,-83,11,127,26,-5,-7,23,14,-10,-17,-12,12,9,39,-10,-3,27,-47,-79,-43,-72,-28,47,39,56,0,0,-20,-18,-46,30,-40,63,6,48,-51,32,30,12,18,-4,18,-49,-75,-43,-14,68,-11,0,-54,52,0,-38,42, -53,-29,-44,4,-33,-14,-34,15,-31,1,-16,-51,68,-7,18,4,21,48,13,58,25,-12,0,76,30,-47,28,-52,-74,-18,26,-24,-39,88,39,-34,-51,66,-68,-42,69,-32,27,41,52,-21,-22,-6,24,-23,-57,107,9,-23,-22,11,33,-40,88,-3,-60,63,-30,1, 6,24,-97,-26,55,30,29,1,46,22,74,28,-13,23,31,13,-10,86,-35,-45,48,20,-14,58,25,-16,4,-24,-15,38,-59,59,4,45,54,18,55,84,63,-65,90,-23,-94,-31,-25,10,-22,30,20,30,7,51,-73,43,37,44,59,4,9,-22,-29,-14,-120,41, 
  /* [31][0][][] */ -22,10,-86,-116,41,-51,87,-81,-14,-108,-12,-77,110,9,-57,24,87,-85,4,20,33,59,15,-108,-9,-24,-49,-66,-33,16,-54,44,33,-36,35,50,9,-69,42,-26,-77,32,-63,-43,-34,22,-24,-57,-74,-58,50,10,-52,98,-10,-52,-65,18,-125,18,36,-11,-125,-33, 22,33,28,54,-33,38,-12,-52,13,8,-2,73,30,62,26,-17,61,-16,109,9,31,56,-5,-127,-37,102,-34,16,114,-34,28,71,96,-14,47,-14,17,-54,57,24,-75,32,25,12,-27,6,52,66,17,-7,-5,56,77,92,-37,2,19,59,-34,-98,-21,-7,-28,-18, 45,37,55,-10,16,5,77,-5,-58,-60,-93,35,62,-12,-28,45,81,-54,73,60,-46,44,-5,-112,-32,22,-5,25,8,-20,38,56,44,-73,-50,-44,52,-91,9,6,-76,69,-38,-52,5,67,-44,-47,14,-36,-16,48,-26,38,22,23,-39,-26,-17,126,-9,29,57,58, 
  /* [32][0][][] */ 42,-16,77,7,41,-79,-3,50,-20,-77,-49,48,-8,7,14,-23,2,-6,-113,33,-23,-28,-7,-121,47,-20,-28,46,-54,-40,-16,9,-43,28,40,-6,-55,-89,-42,16,-127,18,7,20,-6,31,7,-63,52,34,22,-4,-7,70,-36,-46,-69,-31,-12,24,-23,52,11,-9, -24,49,36,31,17,-10,90,26,-62,46,23,71,-28,15,-10,5,-3,42,-45,35,58,48,46,12,24,8,13,42,-47,-10,67,89,17,-48,-1,-57,6,59,88,11,37,53,-5,-4,56,89,-10,40,-8,-31,-30,-74,68,106,107,-4,-60,35,40,-24,-3,-22,69,37, 52,-29,74,-55,61,89,5,-5,11,14,2,-1,-41,64,-5,42,41,61,-25,17,37,9,28,-8,33,32,-24,57,-10,31,51,64,-32,11,-31,34,42,12,50,18,72,-4,2,28,44,38,-13,23,-10,7,46,67,3,17,44,-37,-35,35,52,-40,9,8,50,-7, 
  /* [33][0][][] */ 5,6,-15,-35,36,-23,21,-7,-19,-83,-3,-49,-24,-25,3,-8,-6,-83,-57,-15,-46,25,12,-93,32,28,44,19,-20,-9,-36,27,13,29,8,-29,-15,-18,-6,-86,-107,0,-107,-22,-17,14,-34,0,-27,-4,30,-46,-19,-10,17,33,-27,11,-68,-72,-19,41,-68,17, -23,5,-8,63,-28,60,-35,-16,4,2,56,27,-52,-8,-4,36,-39,14,22,35,20,-1,-25,-36,4,12,-2,-36,4,20,37,1,44,127,-14,-11,42,67,34,44,-41,11,-2,14,-2,4,12,26,21,-13,-5,59,39,37,23,-3,25,-5,24,-21,26,4,-17,-3, 4,13,-38,4,20,-81,58,-16,36,-109,-33,-30,57,-4,8,44,52,8,40,-48,17,-17,-3,-36,22,-30,55,21,8,-29,-77,3,21,12,-31,26,-39,9,10,-65,-7,36,-57,-11,33,70,-5,-5,16,-8,-6,30,-32,31,34,-2,29,-13,-15,-56,30,-1,-104,45, 
  /* [34][0][][] */ 17,-72,-38,-38,-22,7,-80,-26,-16,-80,-17,-63,-71,-15,34,-5,10,-45,62,27,-36,-48,-10,-55,44,-79,3,-36,-28,-42,-27,-26,16,5,25,-31,36,-31,-67,47,-33,-7,-22,-67,-23,27,34,-43,-61,-37,-57,-55,28,28,-43,6,-14,53,31,1,-32,-54,-49,-22, 52,-44,23,-18,69,-37,19,-62,-30,16,-59,-58,-38,-45,-21,-81,-71,-69,-57,-39,-56,-26,-28,21,37,-61,-23,-34,40,-60,26,-59,18,31,-34,60,18,-43,-21,-59,-33,32,-102,-18,60,-6,-33,-28,13,-47,-14,24,13,-34,42,33,-66,-3,98,-44,-67,-87,-40,30, -64,-41,-18,31,56,31,-20,-41,32,36,34,22,50,68,-59,19,-93,27,40,55,32,57,-12,11,-43,-24,-18,-18,-24,-13,12,-61,-127,42,57,-3,4,23,-43,22,-16,-69,-77,22,-41,-54,-33,-87,-47,51,-1,26,-4,-72,-85,45,38,-66,-42,-56,-91,-57,-68,-36, 
  /* [35][0][][] */ -30,13,-72,32,-49,22,31,-10,-28,-61,116,11,-50,-11,-48,-44,-9,40,1,-8,31,-24,-15,92,-23,17,-11,-16,-54,-10,-112,-59,-53,-4,-56,52,14,57,-61,-106,64,15,-70,-4,-11,-9,24,36,-71,29,40,103,6,-4,-85,-37,20,-24,-28,-37,-54,44,-15,-24, 11,-24,-12,43,28,-57,-72,-41,-52,39,28,-86,-41,-5,70,-57,-68,-41,-28,103,4,-20,-61,-15,-12,1,23,-51,-39,-11,-27,-66,-55,-52,-62,-33,-20,16,-109,29,-12,-35,-27,18,-42,-32,13,-55,53,14,-22,43,32,-55,-61,6,10,49,17,85,-57,-3,-35,40, 22,49,39,58,-50,-61,-28,-58,36,40,-40,-19,82,30,3,-12,75,-107,0,-16,31,-20,33,-95,37,-25,-23,56,-35,-36,-39,-38,28,-19,-12,-11,1,-30,-45,-46,11,35,45,-40,21,-30,-2,-3,-98,-68,-37,-63,35,-51,-44,-6,-123,-36,23,-7,-30,-127,-62,-44, 
  /* [36][0][][] */ -25,-9,-4,41,25,-69,-54,8,-12,24,-35,-42,32,19,30,-25,30,-32,-99,11,-10,17,-52,-6,-23,22,-30,-16,-18,14,-27,-19,-63,70,-10,-43,-48,-29,4,-41,-32,70,90,10,-22,23,28,-53,15,67,0,8,46,0,-29,-18,-5,-19,115,32,-54,-67,48,4, 2,35,67,46,-29,102,7,28,53,76,55,83,44,27,43,41,43,-49,63,-22,27,89,12,-40,2,83,22,99,108,28,114,35,14,-6,70,-38,23,52,40,72,-35,41,15,26,20,48,-11,17,-2,5,29,23,106,-10,61,-23,-13,22,-40,5,76,-30,-13,-1, 43,-3,-33,2,-31,-75,5,-41,28,-93,-127,-21,40,16,-28,43,6,-33,58,28,58,2,4,-63,-33,-27,9,22,8,2,-15,77,49,83,-7,-19,-60,-33,-18,-58,-61,47,-33,-33,52,-8,-7,-62,-38,15,27,20,-64,19,54,-43,-59,56,-41,30,4,-33,-49,54, 
  /* [37][0][][] */ -3,42,3,-127,29,58,-23,26,19,54,-12,-12,37,-15,22,20,17,-23,13,-11,40,-21,-9,2,3,37,-10,-12,-49,42,33,0,-13,-56,-10,33,-4,-53,9,65,-28,-17,-21,-1,17,-33,9,18,27,-7,-2,39,15,22,45,1,1,11,-2,-17,10,-29,-3,7, -18,-25,-46,35,22,16,-21,19,8,6,8,-18,-35,-14,-41,-6,-52,-49,-59,-13,-19,38,-19,21,34,-14,4,-6,-38,-15,47,-41,-19,58,59,11,1,-2,-18,0,12,-36,-47,-7,-27,-41,-6,-27,-57,-42,3,27,7,-11,-35,-37,26,-10,36,36,-58,5,-8,5, 32,-33,-5,-3,32,-57,-60,-34,5,-10,-35,-28,-38,23,-7,-22,22,-45,-48,17,-13,-36,10,-7,-12,6,-7,0,-77,-2,8,-88,6,41,16,19,-12,-47,-46,11,-87,-75,-55,-20,-19,-45,-2,18,-59,16,1,-4,-11,-123,-33,-19,-38,30,46,-44,25,-24,-58,-28, 
  /* [38][0][][] */ -15,-10,-88,-127,-19,22,35,-2,38,-58,-4,-3,-40,44,-38,-10,-32,38,-18,18,-7,11,28,35,28,-5,19,-60,-17,-18,13,27,-56,-58,26,-12,-23,57,59,-1,32,26,-25,10,-1,40,-33,-17,6,-14,-12,-33,-62,8,62,-43,2,25,-21,28,-40,7,-126,1, -10,-13,63,-84,21,41,-10,-26,13,41,36,58,-11,-1,-9,47,-36,-32,-17,-29,34,-21,10,5,14,68,12,4,2,-50,64,-17,-4,26,-40,-23,9,-63,-14,3,-11,40,-7,-22,3,-20,28,23,34,3,11,-49,-17,0,6,-24,-7,22,9,35,-18,35,91,47, 35,-1,-106,-16,-33,-13,-75,-28,-2,-28,0,-25,-44,23,-20,-24,-51,-80,-70,2,-19,35,16,-70,21,-21,-27,20,-52,28,-9,-12,-21,-89,-1,34,-24,-8,-30,-42,-91,-20,-16,9,4,-22,6,-45,-36,-35,-10,-73,8,-38,-85,-5,-31,-35,1,2,-3,-70,-68,39, 
  /* [39][0][][] */ -59,-32,76,-52,-74,66,2,-20,5,26,75,-92,-76,28,-21,-44,-70,-118,-106,-25,-35,-65,-89,6,75,-5,18,39,-21,-67,49,-33,-24,64,52,-11,69,-75,11,-38,47,-88,-36,-29,-86,-70,75,19,31,62,-73,-20,-11,-69,-79,-53,4,47,-28,-23,-92,11,49,-78, 7,35,18,71,-39,-44,-104,15,32,60,1,1,37,-95,-9,-91,18,-114,13,28,-56,41,-78,7,76,-96,1,-48,20,3,-19,-52,-80,-13,-8,-62,-69,-65,-16,-52,-99,0,-116,26,-45,-36,-45,-31,-9,38,34,79,70,-86,-43,-7,-16,-62,-6,12,-37,-14,-61,41, 37,-42,-127,-98,9,-122,-22,-59,50,-108,-14,-7,43,38,-15,-48,-26,-44,-72,-49,-30,16,36,36,-55,17,-63,-16,-8,16,-113,-51,35,-17,-44,-45,-24,35,-112,-58,-50,-98,-107,-69,-68,-74,45,-46,19,-29,72,-6,-57,-92,23,60,-98,10,-16,6,-9,-94,-100,2, 
  /* [40][0][][] */ -79,-127,-98,61,-39,-20,39,15,-21,-55,42,37,-79,-3,-61,-112,-12,-111,-101,-46,-50,85,-64,-33,-12,-20,27,-60,-17,-71,-77,-39,-100,50,4,-14,-118,-39,-1,-30,5,-30,42,3,45,5,-34,42,39,-67,-15,-88,4,33,-111,-89,-90,-62,-43,-20,-21,-82,-66,-100, -25,21,24,-32,-7,-9,-74,-57,0,-30,22,-93,-16,30,-16,-94,-117,13,-12,82,-52,8,61,-97,18,41,27,-58,16,25,51,-46,42,-67,54,86,-109,-40,-27,-24,-101,-109,8,11,61,-109,-62,-49,21,-56,104,18,41,40,-9,89,-100,-54,33,26,6,-88,84,40, -79,25,-26,35,37,-41,-40,-89,22,5,2,19,-43,45,-21,-104,62,-18,57,-72,-18,-25,58,-13,65,-113,22,47,60,9,-106,-20,41,-58,40,-78,20,-48,-113,32,-64,-90,-18,17,37,-18,65,24,43,44,-55,-87,-1,21,20,-49,-44,-55,-127,-13,-91,31,-40,59, 
  /* [41][0][][] */ -29,57,72,-24,39,55,24,-9,14,-48,17,-60,32,12,18,40,-11,-28,23,31,-1,67,47,33,12,50,18,3,72,-15,-37,56,21,-29,22,-15,51,32,70,0,-11,67,-23,14,-40,-30,4,-21,-3,-7,-23,-96,-78,-7,47,64,41,-9,35,17,20,-26,-32,-11, -34,7,104,-20,-24,51,16,-85,-18,31,-77,9,61,21,-61,38,-17,-108,83,23,11,-30,-5,-64,11,1,25,39,37,-1,-3,23,-20,10,103,13,45,-47,47,82,-122,57,-36,-22,28,-15,-17,-8,41,-5,-25,-32,94,30,-31,36,-101,5,-49,7,-3,-69,92,-7, 14,40,-114,45,4,-31,16,29,9,-52,-9,-33,-28,-8,-16,12,-107,0,56,12,11,15,-32,-32,27,15,-13,60,-66,-2,14,24,13,-74,72,16,-45,-13,-3,6,-4,76,65,23,44,-12,-8,-88,61,18,23,-127,8,80,5,18,-104,14,50,6,-35,-71,-66,37, 
  /* [42][0][][] */ 28,23,67,-88,-2,25,-14,-26,44,50,0,84,33,51,49,37,24,-24,30,-14,29,59,3,-41,-10,87,28,69,62,-4,89,-30,-76,-80,-11,-14,7,11,40,109,-60,21,-28,28,21,-84,49,11,53,40,-18,26,33,24,29,37,-47,-22,-21,9,-11,-69,119,24, -14,9,-12,-31,37,-78,55,-46,-30,-123,6,-20,-7,-20,-7,32,-67,-74,-31,17,-10,20,-7,1,35,-35,-64,-61,-30,-27,1,-39,-26,-48,42,-18,-26,-8,-59,-114,-6,-30,-35,46,19,3,20,-110,-23,22,43,17,-94,42,-36,-4,-64,8,14,127,-48,-30,-17,42, -57,10,-57,93,33,4,-67,-36,-29,3,9,-2,-34,-33,49,-40,21,32,63,6,-20,36,-12,-62,-40,-16,55,-33,-58,-9,-27,16,43,-45,-11,-29,-24,74,-25,3,2,-10,-36,-37,28,59,34,13,-44,37,33,-60,-5,9,-47,15,-69,20,20,-68,17,-32,-2,56, 
  /* [43][0][][] */ -39,-25,6,-12,54,-21,50,7,45,-127,-61,-3,57,51,-10,30,51,-23,-20,-15,2,-1,9,6,46,5,25,-12,-46,31,-20,20,69,-38,37,-38,-40,-50,49,-39,-100,38,38,-5,48,-8,8,-21,-28,20,31,90,-35,7,-24,-36,0,30,4,-18,37,14,-85,41, 11,29,-34,59,-13,24,-53,9,0,46,6,12,-18,60,35,59,-67,-7,-20,-1,-5,0,0,15,17,-53,24,-10,-46,37,26,3,63,-53,-60,-28,23,109,-27,-14,91,23,-21,0,48,36,-30,-23,22,23,47,-13,44,15,40,-20,-29,15,117,-3,57,-15,99,16, 61,43,-61,-20,45,-14,87,54,-17,-51,89,-38,-19,39,-9,54,81,7,22,-27,27,-26,33,58,-34,15,-16,-77,-13,-38,-45,21,-23,-51,-30,-1,48,13,47,-40,88,44,-9,-6,13,101,17,55,-23,-15,45,-2,-35,33,80,7,31,5,-59,-6,47,16,-70,23, 
  /* [44][0][][] */ 48,-6,-24,36,55,-70,-89,3,-27,-70,-10,-25,-46,81,-49,-105,-60,-80,65,25,-103,-127,-14,-17,-44,-92,-23,-25,-69,-38,23,-126,-97,18,-60,-89,-62,-12,-31,-70,1,-65,-28,13,84,-86,42,-77,37,56,78,11,42,-46,-75,46,-39,-42,-2,11,-58,-34,-85,91, 69,8,-70,-35,7,-34,43,53,-54,-42,-28,-72,43,-46,-10,-124,-37,35,-60,-22,-36,-50,70,-124,65,2,-92,-100,-3,19,-85,-31,-96,-23,-93,27,34,48,-58,-71,-17,13,14,-72,46,-95,48,-25,39,9,24,-99,-34,-53,-111,50,32,-88,41,39,56,23,86,-17, -91,-69,18,37,31,-71,-30,-27,-83,-24,38,-69,-96,-84,9,-77,-86,-33,58,-55,51,-33,79,-87,-40,-51,13,-23,19,-52,39,-67,16,4,-7,70,-121,-78,-75,-86,8,-11,-4,-36,78,-110,-37,17,-27,48,23,-64,39,55,-49,-34,10,73,-45,36,-1,-49,-70,-9, 
  /* [45][0][][] */ -24,41,127,15,12,39,-44,14,34,-1,0,45,52,-22,18,5,9,-23,-51,2,66,24,4,-53,36,56,-5,45,16,-25,84,50,22,-27,14,-37,18,11,8,101,-11,19,-3,-30,30,17,55,76,32,2,16,49,65,-2,-25,-10,3,-21,-3,-5,84,12,71,-2, 10,17,-60,43,-3,-42,64,3,-23,-19,-11,3,13,22,47,-9,17,-1,-99,20,38,34,23,40,12,19,16,47,-39,-20,-2,-14,9,-4,82,-21,-22,114,-34,-87,14,30,-35,32,-8,68,5,6,-5,15,33,47,-107,-8,-24,-16,34,-1,70,42,-21,0,7,2, -26,37,-64,-11,7,21,-12,-22,49,-15,32,7,0,24,51,-7,20,28,-63,-17,32,-20,-17,9,16,21,-30,-46,-55,-34,-8,13,26,-7,4,-22,-21,99,-4,-78,61,-52,-60,44,27,25,-12,-8,27,-26,56,-24,-19,44,-37,-7,-5,50,-24,-62,91,-8,-75,21, 
  /* [46][0][][] */ -1,15,-37,-46,5,-71,15,-125,-5,-81,-51,-111,63,-2,-84,-68,35,-51,52,-3,-103,-7,-6,43,-89,-49,39,-85,-34,38,-74,-119,-76,67,-25,-15,-46,-123,-36,42,22,-22,8,-6,-3,-75,-15,-36,-59,-38,70,-43,24,-26,-32,-34,8,-19,-93,-85,7,0,-71,23, -69,56,-56,-52,-19,0,21,-70,54,-113,-73,-29,-75,-123,54,-65,25,-99,68,-62,-14,31,60,75,61,-69,-49,11,-94,61,13,-98,66,-8,-109,-57,-84,-38,-101,-48,-114,38,-97,-53,-90,-91,-8,50,65,-68,-92,71,77,-4,62,36,-82,-56,-39,-79,-13,60,52,-63, -64,-48,-77,-98,-10,-87,-106,-28,50,-127,17,59,3,-67,-17,14,36,44,11,-62,-114,60,35,-63,-82,27,78,-37,-57,-9,-29,-117,-6,45,62,73,7,-46,32,39,-25,37,85,-93,-11,-76,-60,-89,-15,-26,-35,42,-6,63,-42,5,-94,-67,21,-46,-52,54,-116,-64, 
  /* [47][0][][] */ 42,-1,17,-62,-18,-127,17,-8,105,71,-2,-67,-71,52,-79,-46,9,-43,90,66,-59,61,37,-50,28,-59,80,62,-1,-49,34,-10,-26,60,-1,12,-25,-58,-34,36,-15,-56,13,5,-30,71,-54,30,-17,-11,-4,-18,-19,-79,-101,11,53,-74,65,-94,29,3,-7,22, -17,45,21,-24,-1,-78,35,69,46,40,10,61,51,-34,-54,-95,4,-55,-101,-25,-93,-23,-38,43,-2,-37,-18,-16,22,-71,19,7,-29,40,-25,-15,34,-83,53,-5,-8,-90,-18,66,-103,-95,-9,3,87,-70,14,-42,-98,-67,-24,-58,21,20,-2,12,-91,-39,-48,-12, 74,50,-5,19,-57,70,-24,-19,54,34,-48,-43,19,44,-19,-23,-25,1,10,5,-27,45,-23,-42,71,-18,-6,9,-45,77,5,-53,-87,-103,-27,12,-3,-52,-20,-54,-75,-2,-4,68,-95,-7,4,15,26,-7,82,68,-63,31,-39,82,33,-26,13,-28,-66,15,-77,-40, 
  /* [48][0][][] */ -11,-61,36,-48,73,66,8,-38,60,-46,17,-10,44,-8,21,54,-10,-37,-22,-36,61,42,-38,54,-32,48,-40,-75,-14,58,-58,-58,-68,127,35,-57,-3,-85,38,-86,40,-66,-14,-58,-22,-72,-30,54,-21,35,-18,65,-27,-48,-8,-5,75,-12,25,-69,-44,31,42,64, 30,10,-81,-10,7,-40,-4,-74,18,-22,-50,-61,38,-61,4,18,-9,7,-9,-45,1,-19,49,-42,13,-2,18,-20,7,0,-80,-65,-21,-28,73,4,-5,9,-38,-4,-56,-39,-27,17,5,-35,54,-94,44,-59,14,-61,-29,-26,6,-73,-15,38,-27,-45,1,43,-19,69, 66,-51,-39,-28,1,50,17,-44,32,-28,-68,44,-7,84,-2,14,3,-13,-42,-13,16,2,77,-9,-36,25,-37,-32,-6,30,-14,-34,50,-16,20,43,-37,-28,22,-62,42,15,-6,-29,-40,48,49,3,-8,33,31,-42,-43,2,14,41,-24,79,-25,-35,-49,63,39,18, 
  /* [49][0][][] */ -28,-23,20,-21,-25,48,-48,-46,-32,-8,19,-25,43,-11,-11,22,30,-26,-42,-39,42,-42,-15,2,-29,-29,16,-53,-51,-39,19,-12,46,118,-54,-29,53,-58,-56,2,-12,-127,-16,28,13,-101,-9,18,-25,9,-23,70,-24,-106,-90,1,70,25,14,0,6,31,-45,41, -1,0,-35,59,18,-3,-39,-21,25,17,17,-40,46,-46,-29,13,-80,1,64,-34,3,0,22,19,31,-1,-9,52,-38,9,-1,-56,-45,-2,2,35,-7,60,7,-73,25,-5,38,21,-21,-46,-14,-52,-58,48,-21,71,54,-71,-43,9,22,4,49,-15,-59,-9,-81,-4, -10,-42,-21,-89,40,-30,43,-51,-37,-35,-34,-50,-45,-12,38,-48,-58,31,-5,14,13,38,39,-40,-17,-21,17,-64,-26,33,-14,47,19,-50,25,32,-45,-75,-43,-26,-13,8,-17,-28,0,-37,-23,-55,48,-8,1,0,3,17,27,12,19,-22,-21,22,-10,-61,-37,-2, 
  /* [50][0][][] */ -8,63,-55,-25,-20,-22,58,39,21,-31,-16,34,27,10,-23,16,-17,32,43,-36,32,-6,6,56,0,-26,2,-48,-26,26,-67,62,20,-26,7,31,-8,77,41,-32,24,-26,-39,21,6,55,28,-21,5,-8,29,-44,-102,44,38,-13,-10,-12,-68,-49,-2,23,-62,24, -7,11,87,-74,-5,-2,45,-19,-27,-21,47,18,-9,7,-12,48,-21,13,-51,20,69,-86,16,5,-14,20,-21,-30,39,18,-5,23,-8,87,16,6,-14,-91,-5,15,35,38,18,3,36,-16,-22,48,24,-55,-20,51,19,5,2,13,42,29,127,20,42,-20,71,38, -26,-30,-92,-22,-52,-56,-125,-88,1,-12,-36,-7,-34,-19,2,-70,-93,-92,-81,-5,-95,-5,-16,-122,28,-1,9,59,-87,-41,3,-64,-119,-91,-16,-8,-103,12,22,26,-76,-1,-122,-40,18,-44,-49,-123,-71,-40,2,-51,37,-62,-78,2,-104,18,-71,43,-126,-96,-10,9, 
  /* [51][0][][] */ -57,-24,33,34,11,-60,-95,-24,48,16,-57,-7,8,-35,-52,-3,58,-43,26,25,10,56,-67,-78,-62,18,-35,-18,-22,-5,6,-91,-31,-15,-36,-27,-21,-88,-7,-46,51,-35,-8,-57,22,-50,-82,-1,-29,-35,-5,-88,10,-33,-18,29,-88,22,-48,69,-7,21,-25,50, -49,-82,-34,36,-23,10,-56,34,-25,-73,-21,-44,-40,20,42,-50,32,-34,-26,67,-86,-69,-53,6,-74,25,-44,-23,-37,19,-119,-14,-8,49,-88,-28,-19,56,-13,-48,11,-127,-84,-49,-39,-39,-1,5,-43,-26,-71,-13,-90,-95,-5,22,-102,-19,-1,10,7,-67,-41,-3, -4,-7,19,11,-64,-26,-4,-5,13,-80,-71,-76,25,29,-52,-89,-62,-33,4,-46,-26,30,-11,-60,-7,-68,29,-79,-105,-63,9,-84,57,25,58,-10,-72,-52,-21,43,-123,-6,17,-67,46,-37,5,40,15,-48,37,-27,-53,20,-37,58,-103,-71,-18,-33,7,16,-37,11, 
  /* [52][0][][] */ 59,-27,-1,-9,-12,-50,-17,-62,27,-127,-88,-93,66,-6,24,36,26,-96,-43,56,-76,-33,48,-100,42,-18,27,27,-117,27,-64,52,-14,-52,-24,2,-6,-45,-14,14,-79,34,18,-25,-2,35,4,-74,-57,-12,2,89,-77,21,19,-10,-1,9,-66,58,39,23,28,38, 20,-16,-30,35,-14,-41,-32,0,36,-21,-37,3,-17,20,-55,47,-70,-19,64,45,63,-46,22,78,-12,19,29,-18,-84,-61,39,30,101,-43,87,27,46,100,-12,-51,32,59,28,4,55,2,12,32,72,-26,38,-66,-44,70,50,7,-6,38,84,-51,-56,15,65,23, -28,37,61,-48,-32,15,-10,-28,-66,20,53,9,55,-6,16,38,27,-1,-12,22,47,78,53,-4,-38,35,-42,-17,39,47,6,-20,6,-21,97,44,-14,24,28,109,-49,31,29,23,-11,-16,1,67,46,-3,-69,16,65,4,57,16,30,-17,-68,57,29,47,83,40, 
  /* [53][0][][] */ -22,25,-26,-69,31,-26,4,26,41,-30,8,-4,15,4,-14,28,-45,11,-31,8,-14,36,4,3,-15,-33,24,-7,77,15,13,-18,7,36,30,-23,15,1,-11,12,-32,-38,-17,-6,-25,-9,-26,-17,7,-27,7,-10,-31,-8,-42,11,-10,44,23,-33,15,-17,11,34, 17,-12,23,-24,25,65,26,3,-14,8,-13,0,-2,28,-18,40,-14,-32,13,-1,50,15,20,-50,14,55,17,11,62,6,7,-9,14,8,4,27,22,-25,10,16,-67,15,-50,-27,6,31,-29,-6,-1,14,0,44,10,43,1,-20,8,-15,-28,24,40,-18,25,32, 17,-11,-5,-68,-2,-46,46,11,-17,-120,-12,-21,-4,-22,25,21,-38,-52,-26,26,33,-18,-14,-127,9,-41,17,-10,-24,-12,-27,17,-18,-52,7,-29,-27,1,20,-57,-65,20,-26,0,47,16,-33,-4,-37,-10,6,-51,-86,58,33,26,18,4,-19,-28,12,8,-65,23, 
  /* [54][0][][] */ 29,-29,-60,29,-18,-80,-114,-119,113,75,18,-99,14,51,36,-71,27,-79,86,-81,40,-18,-114,59,52,-23,-9,-117,-32,-26,-88,-35,-56,-79,-66,87,-109,75,62,-88,109,48,-46,19,-53,27,-38,-110,-66,-35,37,50,50,15,-65,54,16,-110,-13,-8,-81,-16,-99,41, -61,32,-64,-68,34,-117,8,-64,71,14,-22,-99,27,-20,18,-60,65,-12,4,-70,-50,94,-31,-79,-21,52,-58,-9,68,-57,61,-11,-97,72,-91,-14,-59,21,-6,80,-24,31,7,-19,44,27,76,51,33,-55,-61,-94,94,-94,-58,-16,-6,-4,35,87,-9,-7,-118,-66, 63,-80,-15,48,60,-4,4,-62,5,-111,-6,-6,63,43,-104,-26,-21,-6,59,-32,-67,-58,31,-98,43,36,0,10,-39,-69,40,-67,-30,-78,-116,-21,-5,-31,-39,-42,-4,45,-66,8,-23,-98,13,-127,-96,-66,-57,-113,-9,-14,32,-85,24,-66,-9,-35,-51,-72,-65,19, 
  /* [55][0][][] */ -50,15,9,-40,-36,25,-44,-36,8,5,-4,-10,-127,16,-28,-58,-106,-1,40,-46,-30,30,-15,64,11,-66,44,-36,-33,25,47,-29,-31,64,-12,-43,-81,-55,-80,30,21,-45,39,11,34,-50,5,-35,31,-56,10,121,25,-52,-51,20,55,-21,78,77,-88,-58,22,42, 44,-27,-7,-1,-52,-92,-23,-67,-14,42,-23,-14,-25,-59,-53,-46,-25,25,-46,-53,-24,66,33,-25,34,34,-2,42,44,-37,-35,9,15,-79,31,3,-100,-51,-6,-66,-68,-2,-12,14,-61,-40,23,2,-63,-62,-59,-50,52,-43,-30,30,-58,-52,-15,-79,-76,-60,-5,-65, 14,-52,-92,-21,-14,-46,-82,-38,-4,-5,-41,-58,1,-12,-57,27,54,-42,19,6,17,-24,-43,-45,-21,12,52,30,88,-20,4,-43,-25,-10,8,-9,-50,15,4,7,-19,61,-75,43,34,-72,39,-15,-33,3,16,-54,-63,-33,-5,-6,-9,5,-52,-26,-27,-86,-61,3, 
  /* [56][0][][] */ 90,17,-2,-32,34,-22,-72,65,-79,-10,37,0,-33,65,90,-30,-48,-99,35,14,34,48,-75,37,-9,52,50,-89,-95,-66,-51,-73,-50,22,116,35,-77,-20,-103,-83,-71,-29,22,-20,69,-91,-18,-65,-37,-105,88,-82,-2,6,57,28,45,-41,-67,-6,-19,-93,62,-90, 76,-97,-107,-26,8,53,32,31,-43,-115,-51,15,-104,-13,39,45,36,4,-93,72,-35,-30,-95,5,85,-71,18,-127,-86,48,-19,-103,40,-101,-50,69,-3,-48,-48,-48,8,46,6,-13,-64,-120,81,-44,29,-19,20,-52,-120,-91,-50,15,-62,2,-8,16,-13,-62,-9,13, 19,-85,-53,-35,33,21,6,84,69,-99,85,-54,-96,74,-50,-90,-41,57,53,89,-36,17,-88,-92,-1,-41,30,-18,77,7,-26,16,18,-68,68,38,-91,66,-68,11,-8,-89,47,-54,87,43,-1,27,-2,-60,-21,-3,13,34,-75,-64,28,36,39,-103,73,-54,-12,14, 
  /* [57][0][][] */ -71,-10,72,-53,-31,37,-15,31,2,48,-18,74,-40,47,-20,41,40,-61,68,-4,48,-62,-33,-36,21,84,-10,83,25,-1,99,21,-127,-60,-37,19,-15,-87,81,81,-12,4,45,-12,-46,-7,-12,-6,-1,-58,-49,46,-6,26,-25,-30,-21,-12,-81,78,12,-35,-16,-18, 33,-19,62,2,4,-41,-13,-58,22,23,-66,-39,-64,-48,18,23,-33,35,30,-18,-59,22,-29,15,-26,54,12,113,103,-45,-12,7,43,-19,70,-33,9,-64,-25,58,-43,67,27,-35,-36,-32,-6,1,16,14,3,-24,-7,-19,-17,47,18,-55,6,102,37,-39,41,-56, -19,-28,-31,121,-47,-25,-46,-51,-25,6,-40,-51,-18,-31,-34,21,18,-21,-4,-55,-113,-28,-11,-58,-25,-35,-36,23,-17,-4,-48,-45,28,96,76,-29,41,95,-53,9,-53,-49,-70,-3,15,-78,-28,-36,-48,42,-51,2,76,-72,-53,-10,-12,-39,-12,-72,11,22,-58,28, 
  /* [58][0][][] */ -33,24,-57,44,21,54,2,-81,28,53,-54,24,-13,-97,-71,-104,89,44,57,-40,-108,-7,-67,11,-35,-78,5,-31,41,-30,16,-108,-90,-15,-43,-81,-82,16,-96,56,-51,84,-54,81,28,-89,20,11,54,36,-79,-61,44,-26,13,30,-18,-5,45,-1,-107,-103,-10,31, -70,17,-70,44,-102,-6,-20,56,-45,-104,4,-10,-69,-8,-76,7,-30,47,-43,43,-104,20,36,-11,57,53,-16,41,-53,34,30,-22,-33,-30,45,-10,-67,68,-54,19,-50,20,50,76,62,57,-78,42,32,-75,-68,59,56,-25,-13,41,-107,-111,-43,15,-23,20,10,-64, -5,-21,44,31,-93,-45,-33,-113,-100,-82,-34,46,10,-23,-41,25,44,-90,44,-55,-56,-10,-8,-45,74,-113,-111,-60,3,65,-37,-121,-49,-67,12,43,17,29,-127,60,62,-32,-94,42,-22,62,15,-88,-88,-79,-26,36,39,-56,-114,35,15,-105,-24,6,-82,43,-44,20, 
  /* [59][0][][] */ -37,24,-58,-104,-51,-88,46,-46,-62,-78,-33,-19,69,5,28,-10,63,-33,-96,4,17,0,-23,45,37,18,40,1,-85,28,-25,34,5,-82,-13,-35,-13,23,-7,6,26,-37,-65,-17,-19,27,-6,-82,-38,-63,36,15,-84,5,44,13,10,-9,-33,24,33,-63,-65,40, 36,35,31,-45,-29,-24,18,-14,3,15,-41,28,-8,-16,29,11,-19,88,4,22,27,1,61,2,-36,-62,9,-29,-19,-3,-12,-14,13,7,14,-29,-7,9,-38,-59,127,27,81,-25,69,49,2,-18,61,28,45,-18,-64,74,56,21,39,-3,86,-41,29,10,-7,-15, 31,-3,71,-65,-32,17,9,9,55,100,51,108,41,59,8,49,22,-19,-47,-40,-1,-44,55,-7,8,65,-10,59,4,-2,124,44,-26,-52,20,26,17,-9,25,44,-2,18,21,27,18,17,10,61,76,0,-5,13,17,19,54,-8,54,55,-8,42,-11,20,62,25, 
  /* [60][0][][] */ -16,4,-21,33,-21,13,-58,-23,-34,27,34,34,24,14,4,-11,11,-25,-52,26,-27,-24,24,-127,-26,-21,8,17,-37,-13,-5,19,19,24,-37,13,34,53,16,-26,-49,14,3,-23,2,1,-12,-13,28,37,-20,-35,30,-20,-30,-23,-25,-5,-71,-13,0,-5,-5,8, 8,3,-19,-7,-27,-38,27,36,-36,-62,-54,-29,44,18,-9,0,58,14,-1,-40,-8,-16,-27,35,26,-75,-16,-28,-32,21,-5,0,-10,-59,-20,10,-21,-6,-1,-55,-19,-33,51,-28,18,-21,8,-35,-17,29,-15,12,-44,-10,-10,30,13,-27,41,-13,-12,-12,-1,11, -16,23,106,-20,-5,43,-16,16,-5,61,-45,6,7,-4,18,16,17,27,36,24,-9,24,23,-47,-3,23,17,31,73,-15,32,24,37,-66,26,-9,-2,-46,1,60,-6,28,61,5,29,-36,19,1,33,1,8,30,37,-5,-2,2,-23,-2,29,31,11,18,107,33, 
